-1.976626197847122235e-01
2.236668862096674038e-01
-4.242819082352652926e-01
2.463685256847796545e-01
4.889279470453577470e-01
-1.199684886031671560e+00
-1.219768188492261318e+00
1.010999272308190422e+00
7.460386734005692855e-01
1.683745826043997473e-01
3.217374017812431042e-01
5.669371439823641667e-01
3.461160044054691354e-01
1.546555070723803493e-01
3.979957818057850427e-01
-8.036530940554225122e-01
5.756504585164415877e-01
1.761245991001349209e-01
4.438526042717000908e-01
-1.557389002451784688e+00
1.649432173822755476e-02
-1.014304854197634498e+00
7.363364297322377849e-01
3.334546219052131888e-01
1.371064086694777640e-01
-1.453569328548468986e+00
-3.926039294488503084e-01
6.927898129326089949e-01
-9.255314628435810931e-02
-2.918458919373012952e-02
-2.119613666729803225e-01
-1.441594114850458963e+00
2.118113707236095045e-01
-6.189585826932268997e-01
5.696194922091663004e-01
5.862951727944121227e-01
7.218951964315470926e-01
-7.126420271645117271e-04
-1.130392179098335337e+00
-1.059612755965237518e+00
-5.154776674923545743e-01
6.594058133228991592e-01
4.959618491852627598e-01
4.975658957346875688e-01
-5.029647499711280556e-01
3.557345880689054551e-01
-6.730776043462005642e-01
4.102776179238517562e-01
-4.889995101932412269e-01
3.372571830019174266e-01
-1.050366639250011891e-01
-4.442983938750986322e-02
2.700602916186250479e-01
-1.981709878232283284e+00
8.157299533490771637e-01
-7.202093228782771028e-01
-2.177798556063454405e-01
-6.009348139830042457e-02
1.563239896159091868e+00
-1.941339779623659778e-01
6.096065723395583946e-01
-2.130705051397668859e-02
1.023074379409287138e+00
3.120209942612472975e-01
1.975034541550121925e-01
-9.778707653408423850e-01
-1.012531469779526683e+00
7.988562185615654121e-01
7.565231360174872188e-01
1.956218895732864949e-01
8.764350975218446749e-01
5.816969663907533006e-01
-1.265446663146824191e+00
-5.737499388556702717e-01
-8.343049284453978309e-01
5.245344527242463278e-02
2.732156928218912317e-01
4.231957616429766755e-01
4.111568241630213505e-01
-3.281183989939806533e-01
2.992031602803930102e-01
-2.343228782102935448e-01
-2.877713380492227246e-01
4.227474215341535668e-01
-4.186839050691785191e-01
7.085049848213756940e-01
-9.412048147533926823e-01
-4.282993017264426910e-02
2.334606218105180486e-01
-3.444501337092308324e-01
-2.170376956704781202e-01
5.587491140912166365e-01
5.371111324983528501e-01
8.383592778972768222e-01
-9.403109082501609484e-01
1.315809941409669115e+00
5.037120336359263151e-01
-1.735280702014683651e+00
2.711183543935284379e-01
-4.511837711745139146e-01
1.340281356406146096e-01
1.104745913952591030e+00
-1.245143900342517540e+00
3.444999100536102477e-01
5.921300784351257729e-01
5.134425861062219543e-02
-4.711590351585565606e-01
-1.963002655995941537e-01
7.951516384327546039e-01
3.587842676395981423e-01
6.703742764007655786e-02
-3.312896544296123902e-01
1.378905063780601903e-01
2.437481530289067611e-01
2.483170362370973883e-01
-1.278374383143366266e+00
-7.861369299464190386e-01
8.012830991874062558e-01
-1.515533273556045613e-01
-1.984759371980452936e-01
5.299052445623256835e-01
-3.206978259796337549e-01
-2.830596994386311294e-02
5.547130902022533450e-01
5.466241637460790281e-01
-1.269822838868412518e+00
3.522243814669807072e-01
9.828652969334350509e-01
2.143710810077994744e-01
-2.162666667921297470e-01
6.606382316625569739e-01
-3.010144177725622705e-01
8.494729597670400700e-01
7.080266788968148095e-01
1.544441150280887687e+00
3.613327634571441432e-02
5.896992599919749223e-01
-7.072430909094939988e-01
9.870145120663945670e-01
-6.939583630693122451e-01
9.237393194011453978e-01
-4.647875985048923186e-01
6.068813133563158990e-01
-6.666729362069581666e-02
-1.305949434728815417e+00
9.772166505530499592e-01
-3.719830247035476045e-01
1.589262335159518646e-01
4.857186690948556707e-01
6.954812143725791485e-01
-5.076158095895412226e-01
-4.640217952887319974e-01
-2.366686316591251060e+00
-1.446066762465597344e-01
-1.468826383447971340e+00
2.836290062058314798e-01
-4.999477557982824616e-02
3.277310885208293834e-01
1.353820966839121009e+00
7.363348593295910849e-01
-5.138378364625365569e-01
-1.426974651662945348e+00
5.423584581089452988e-02
4.596872433990313866e-01
-2.381101508539945899e-01
-8.567018119958741407e-01
5.119705332374852036e-01
1.057415631476624984e+00
5.056105395587319473e-02
-1.752472505078465304e+00
-1.820185217860730356e-02
-1.319889688661855187e+00
-5.501675622675135102e-01
-1.390113923840786248e+00
-2.010701213588616566e-03
7.939496792596069108e-01
6.929517281214612190e-01
-4.114911156285168681e-01
1.036189366381047749e+00
-3.704424462096196635e-02
-4.370558086502410178e-01
-4.745583356832839272e-01
-4.678126310924401454e-01
8.184138159174945137e-01
-8.814074477057999291e-01
-5.359841209455693534e-01
-1.237503871122308752e+00
5.263621244941719679e-01
4.181596949681901099e-01
-8.165523208762609508e-01
-2.284359610284330266e-01
-5.022585449546241865e-01
-4.932356695659437795e-01
6.609280475061639626e-01
2.057459762932277170e-01
-2.865041828522233228e-02
7.300465774654446571e-01
8.632718293150806743e-02
1.522725704855819873e-01
1.282261575778786078e+00
3.565649800838615047e-01
4.559190537036325042e-01
1.535757335275813873e-01
1.844957030568298739e+00
-1.149691763086522212e+00
-1.374870170515690715e+00
1.224455192613045584e+00
5.391125939096852449e-01
-3.434619548854072058e-01
2.217740614829561141e-01
-1.900573234216480056e+00
-8.890265612236093462e-01
-1.142381877000490320e+00
-1.845903265295910020e-02
9.648566517273561294e-01
-7.330837615293440690e-01
8.185754436861448768e-01
7.687173170950619694e-01
1.061377917489279010e-01
9.190094504109316276e-01
6.259032068723647813e-01
-1.061910856791270508e+00
-2.981669378057366093e-01
1.862546882879699550e-01
-1.090069792709623259e-01
1.169857178230637451e-01
-1.176977826865424959e+00
9.671252933517191508e-01
4.491215767728077290e-01
7.964551415329760298e-01
1.940904083367052668e-01
-1.566570660086512801e+00
-1.032835404328000362e+00
2.826446178496144768e-01
-5.766619522400582287e-01
-9.907125544604200584e-01
2.518747850150203638e-01
8.928828337818064398e-01
6.471776105357985864e-01
-1.379326450303312579e-01
-6.517824331409910465e-01
4.569524129406969948e-01
-4.230111781529063419e-01
6.363002549123332463e-02
-7.661965972818637338e-01
2.725456650594351160e-01
2.851876745824158399e-01
6.054189635923139523e-01
-7.066204696578143318e-01
6.221500659955006007e-01
-4.278311294719038260e-01
-1.154048189570397454e-01
1.929599188882304694e-01
-7.558770963790220065e-01
1.188646873836453483e-01
8.703317231659601916e-01
4.752985891551926301e-01
-1.159751143780401783e+00
7.989227051825740222e-01
1.062740408716610796e+00
-1.342622379960113632e-01
-2.618395293724387063e-01
7.265653343984045387e-01
-9.785511438235014459e-02
-7.334578604768690613e-02
-1.564310630205169861e-01
-3.041788453070100040e-01
-4.490111228342925087e-01
5.689910467045597997e-01
-5.089954738735953388e-01
3.840333599701877820e-01
-2.928539250928327564e-01
8.148818568177525201e-02
-5.632624760080316983e-01
-4.151689561808789841e-02
-7.728123090035761145e-01
-1.462080911470885258e+00
3.681520701986081834e-01
-7.144445952476831119e-01
-7.312335784749312007e-01
-9.660549716476153348e-01
6.882526248119719137e-01
2.244910948160688813e-01
9.211604915394003834e-01
2.854737797133474198e-01
-7.357802672998204896e-01
-7.056809881384006333e-01
9.659222665244480144e-01
-9.862718160348322993e-02
-9.035494738541826054e-01
-2.147560923737606431e-01
8.779776454112064865e-01
1.760512154115966843e-01
7.236549457757209813e-01
-6.320935962767606497e-01
2.422087014049013054e-01
-3.589742061194495792e-01
5.640313650707308168e-01
1.424639056199056952e+00
-1.323565772911389438e+00
-1.103030967848019239e+00
2.994388958127316980e-01
-1.226672294151891718e+00
2.111632429993700599e-01
-4.243848588017525292e-01
2.080426144453377535e-01
-4.050621663478696788e-01
7.525180012744574487e-01
5.585245334977100296e-01
1.976217672149425120e-01
-1.156490223149944513e-01
8.061969152142913764e-01
-3.837088519021665256e-01
-1.450435744726425336e+00
6.287705559972353031e-01
6.080940168270707602e-01
-8.890900595931805483e-01
1.259306443913604356e+00
-5.216795290623736925e-01
1.009649964913982984e-01
1.023276028966572104e+00
-1.127369576015304665e-02
3.725360395497329807e-02
-1.298219866361440822e+00
-6.925726865770569507e-01
-1.480726448232784653e+00
4.664745106591495771e-01
5.816760465411101588e-01
-9.984452016745823943e-01
-2.317485681836235212e-01
1.620618799919760322e+00
3.692805642670151101e-01
2.511391550215120658e-02
6.738463422568252703e-01
2.242035540804263594e-01
3.493782430177635318e-02
9.158062077991311334e-01
-2.727501247034049836e-01
1.571118566299243846e-01
6.328903695292754650e-01
5.527911000744687442e-01
7.198675412482511415e-01
-6.092438165448936793e-01
1.001171791694458690e+00
-7.685964288157517421e-01
5.819881821041037462e-01
-6.653612064826712746e-01
1.055695051735437096e+00
-1.009029206764250564e+00
5.440550330913380278e-02
-1.025936195982527721e+00
4.259842607616924903e-01
-4.448889553500630645e-01
-1.313877897917706150e+00
1.130857747493287491e+00
1.672580310267744341e+00
-7.724220408944459937e-02
1.621988007641652629e-01
1.322473398740122430e-01
1.858850488859987493e+00
-2.536329838563159966e-01
5.654750269007661201e-01
-3.780366095962912065e-01
4.960466029017465694e-01
3.706177539372793039e-01
4.036819419140583731e-01
1.352630580941142968e+00
5.554672793362801508e-01
8.773046051215694918e-01
-2.070738387046385798e-01
-5.005915080029418318e-01
-1.217339577438266263e+00
-2.740943907393090725e-02
1.632031952741265224e+00
-7.319050700475210336e-01
-2.778269425208105825e-01
6.802422549346563985e-01
3.603823932890561910e-01
7.313814943786606237e-01
-5.577771336168769328e-02
3.457784348006021080e-01
6.340535766933856898e-01
8.425061068757263572e-01
3.264897993391070730e-02
-8.498568188167777704e-01
3.306215232921000391e-01
7.980131191159821613e-01
3.500063414973677428e-02
-8.145607075723658719e-01
-7.993152768758656768e-01
1.119481726744639555e-01
-1.894508351277567892e-01
2.633312426973696274e-01
4.474653319659510631e-01
2.846804646293992769e-01
-3.764339468420936918e-01
-1.373291757500165078e+00
3.859414729567500757e-01
5.380674157093044974e-01
3.699579514657458379e-01
8.843161227151736803e-01
-9.479359850877587812e-01
-7.662493432702351948e-01
-9.337846328556917985e-01
1.928059560990354540e-02
8.489392163688512793e-01
3.689986281180180350e-01
1.720462084950099557e-01
-1.008185130332360568e+00
-5.005356087029728673e-01
-1.548403313534038872e-01
-3.252090905253411657e-02
5.595843623989419369e-01
-6.823392877596762274e-01
-1.532470704499838909e+00
6.584445827985725419e-01
2.766245289670006824e-01
-6.252157327353932148e-01
-1.067201299560269073e-01
-3.426089693600694042e-01
2.877050220692098925e-01
1.125616815025438089e-01
-6.082363587638270896e-01
-3.835721737192654968e-01
1.364315585644167161e-01
-5.062592270766641533e-01
-5.376976011674871048e-01
4.364183203157861457e-01
7.730597749545717323e-02
6.661620789176835311e-01
1.250961411578029037e-01
9.656514339589976625e-01
7.100183515167787784e-02
1.090715913528933045e+00
-6.993214623324769397e-01
4.016677769528638198e-01
-1.810059691249951697e-01
6.004064233126220618e-01
1.844858273428647832e+00
-1.641875440542509779e+00
1.168752007042428431e+00
-7.053795712605465118e-01
-1.109377568949506010e+00
-3.704047397203797387e-01
1.021042566143223640e+00
4.557679591123554169e-02
6.496607921943304831e-01
2.404920771772356136e-01
-9.980570491121456556e-01
-4.123651679235362244e-01
-4.014914180237506569e-01
5.311425649606428268e-01
-6.624605277134079651e-02
-6.770869466844202655e-01
1.144020045932446328e+00
-7.948144261622228646e-01
-2.529883595376152816e-01
9.137350474971028813e-02
-2.012645909530175192e-01
5.471839192855987993e-02
-1.225260052223707152e+00
-3.839107409607921961e-01
-1.639462046679722063e+00
-3.509862810433254654e-01
-1.105997383833628112e+00
6.701481034494319866e-01
-1.187872293960750447e+00
-7.296652374426786380e-01
-6.873320288964308578e-01
1.725232963769880463e-03
-5.669921822013718887e-02
-5.547872633614118199e-01
-3.001799597371909156e-01
1.380907275699167769e-01
-1.289732244245302306e+00
1.079963548124120543e+00
-8.828535486589066394e-01
1.426953196965944637e-01
3.643801819556698185e-02
-5.199540485753055830e-01
-6.879118841503667481e-01
-1.324900702551560672e+00
-3.388056934764763772e-01
-1.040479311624193270e+00
-4.328611412250248924e-01
1.279452575740354647e-01
-7.061425323682485322e-02
1.645333915313259288e-01
-2.302170181942975735e-01
-7.274972766830259951e-01
7.033014500798888680e-01
-7.093940163293831480e-01
1.131857530209243734e-01
1.534398537593387957e+00
4.830251953351131777e-01
4.308369729572157913e-01
8.256987819902162906e-01
9.702718574866514567e-01
-6.354501813444302094e-01
-1.201888961872858846e-01
-4.530391919596808703e-02
6.849595983597095428e-01
-1.916799246106131727e-01
-1.045137798258249040e+00
1.030902111122204090e+00
1.423010362856885480e-01
-3.859027028893678990e-01
1.401852150933039498e-01
-1.335991655320627192e-02
-4.834341245781766383e-01
9.877148501840332662e-01
-1.495531687325689640e+00
1.025608834025239169e+00
9.118329938006844437e-02
1.752213836148114101e+00
6.183672810285926191e-01
6.088428475255986544e-02
-6.606310213438051360e-01
8.686980468138303380e-01
8.585224230983916627e-01
-3.582932539703798658e-01
-2.065637055252955268e+00
-8.369910214988466324e-01
-3.528767046296946708e-01
7.141378147731659853e-02
3.089699852694247073e-01
-4.440269312549740000e-01
-1.610107383092009847e+00
5.879128997492391040e-01
-9.938113262022882921e-01
-6.090602402489005973e-01
2.148341478934504833e-01
1.315497288220223993e-01
1.070254858135247567e+00
1.802238313428629279e+00
2.600587202701403755e-01
1.180633894140121987e+00
-2.152959276457001858e-01
1.198407614618418188e-01
-4.012595053844453807e-01
6.755986451956956795e-01
5.232988004726293330e-01
-4.822701811483433576e-01
1.042187430762880895e+00
3.690190422439511564e-01
-4.759413147882167183e-01
-1.035458338191960759e-01
4.262798443225797596e-01
-2.299777713342255336e-01
5.271781623273228412e-01
-1.625290374900462964e-01
-7.130131565876335342e-01
-5.086581901549121210e-02
-3.425043988121815458e-02
5.139702289587375628e-01
7.253650110489237024e-01
2.720019012010319037e-01
5.429413056431182938e-02
-2.503080763610286003e-02
4.538541837512761190e-01
-9.475060637618952786e-01
-3.313299923588268192e-01
-4.316853447951310430e-02
-2.453754195532994453e-01
4.766884586233893772e-02
-1.593942457645451949e+00
3.303930282166993582e-01
-7.760371090095156132e-01
2.068825645240265354e-01
8.877344324454509994e-02
-1.001489211351566239e-01
6.015225057458590818e-01
6.691307646211720472e-01
6.213279183768242175e-01
7.388812373995731209e-01
1.573778096183798547e-01
5.257676007125708928e-01
-2.516567730056467056e-01
6.434625564632737160e-02
-2.346688337796209653e-02
3.077901613765006150e-01
4.414035013529332141e-01
-2.643741332407928968e-01
5.792513401370094073e-01
1.143273178669681256e+00
-2.771498061102769528e-01
4.428073698490136434e-01
-7.801326013223572886e-01
-2.513721188639083670e-01
3.165373525754634487e-01
-9.436704659365706682e-01
-1.279368518418508405e+00
-4.732369157960867878e-01
1.490706260168827291e-01
9.516377042479752246e-01
1.267883357900025043e+00
-8.452952090699505927e-01
8.529722400648089842e-01
-5.505865710255272161e-01
-8.988548615663527475e-01
1.501265081338269525e+00
-5.902764499683613719e-01
1.057403870708656934e-01
-4.273767423815451050e-01
2.571933113584183861e-01
-7.034689451096778345e-01
3.906595933272302701e-01
2.198290505896890179e-01
-1.870609859351720194e+00
-7.390150187954119820e-01
-8.255497105607442210e-01
-5.179602467222292894e-01
-4.358532855435277575e-01
-1.331310917496136281e-01
-5.092135864920868116e-01
8.867094240639178393e-01
1.431554825703896805e+00
1.998402512758176708e-01
-5.066045660898506053e-01
8.093733246314733787e-01
8.430941889259265798e-01
-6.086529292991127438e-01
-7.552160707692968655e-01
-3.192510105765922201e-02
1.138403192919895224e+00
1.274467413249943393e+00
-1.276084786517807768e+00
-9.287183523961817233e-01
-8.412267875648000715e-01
-6.097419721906885970e-01
-8.884773631546638573e-01
-8.921895000852414492e-01
-1.630820003751229375e-01
1.309992872807282938e+00
-6.082569107572721040e-02
7.330772965386518347e-01
4.100218168432234744e-01
1.268073715982962035e+00
-1.350400082882893704e+00
-5.297616844042121187e-01
-9.104494872861699228e-01
-4.685016211447062262e-01
-2.122890431778498566e-01
-4.831348748748019728e-02
-1.692087846977134366e-02
1.233652724458199623e+00
-5.600121184016261244e-01
-6.645376323495014725e-01
4.537152775388464399e-01
-8.470266291903223443e-01
-3.825158519810524793e-01
-1.043283161291949090e+00
-6.983883801340933228e-01
3.142733438700452964e-01
-8.136717823793805371e-01
-5.157931214852863322e-01
7.872890787900432841e-02
-6.268180234159811404e-01
5.735624069105185185e-01
-6.663511748160745596e-02
-9.803777777080908695e-01
-4.547276363324978532e-01
6.124353480101447644e-01
-1.840164683840138649e-01
-7.108351954922392801e-01
-1.822979301922185713e-01
1.579115797038034730e+00
4.789755768134598690e-01
9.837402353952501288e-02
-1.250595890113356923e+00
-1.222622195783954896e-01
-3.952139887262377527e-01
9.096448838216709687e-01
-2.892753809074277010e-02
-6.429210253639116024e-01
7.219428593462322574e-01
1.066178990298267015e+00
6.974339664500749381e-01
8.596014187670426576e-01
-2.029911581666972997e-01
-2.615530567656237371e-01
6.148779172375886670e-01
-5.787031212837928651e-01
-4.557598972022036121e-01
-6.840176933255848191e-01
4.974843499143904307e-02
-1.127495242484897631e+00
-1.054391909698264573e+00
1.998091327491146318e-01
3.085036933278753057e-01
-7.065004294421875497e-02
-6.186559263426726941e-03
-7.487868425163449193e-02
6.913706491966351564e-01
7.494243986358191112e-01
-5.569895734116302455e-01
9.321674095939018745e-01
-5.125391216085890544e-01
-8.273271836389629597e-01
4.836283829902079390e-01
6.356683704800659696e-01
9.502554999276567882e-01
4.629995879506852430e-01
-8.968588078262740293e-02
-2.578111781913530631e+00
-2.183351547299740014e-01
-3.028377165422747597e-01
1.632937964011067222e-01
4.151998996583698975e-01
1.272300492400100680e+00
7.580826420922078812e-01
-3.261447637541319278e-01
1.032111958252257766e+00
-4.765288933957876893e-01
1.396545571231782690e+00
-7.399409331780676391e-01
6.186743759928646780e-01
4.544895237600992677e-01
8.362699819936988410e-01
-4.860734747280089918e-01
-1.309024056969748218e+00
7.323477797541337875e-01
-1.896956247745099355e-01
3.077072105803546065e-01
1.196758547500235581e+00
-3.601481810405268158e-01
-2.447428711807963231e-01
-9.293281919590453688e-01
-1.509441055863369519e+00
-2.968737937833772489e-01
-1.077405752722819243e-01
2.104627387182896880e-01
4.981605379413923673e-01
4.789112003103448423e-01
7.732826324318385902e-01
4.779818267274132948e-01
2.297398940605470674e-01
-6.663058293488547390e-01
-6.678980081326803264e-02
-8.172212803857573649e-01
-1.335729247191302482e+00
1.024978937531660222e-01
-6.430615812654044694e-01
6.455333575587131056e-01
3.196833144614986133e-01
8.905417293030453152e-01
1.413939793021456170e-01
-3.900251154309939960e-01
-4.454586587336993309e-01
2.021348551440688146e-01
-1.626920531130959524e-01
-3.719117487536137689e-01
1.159453486586640991e-01
-1.009266384331095612e-01
-4.502850541991825217e-01
2.307440829919055469e-01
1.056676878792675300e-01
-1.090147072562557967e-01
2.576948196373469724e-01
-2.453611002581421729e-01
-1.629089710724839490e-01
4.060817413314698476e-01
-3.733585863741069044e-01
-4.376326342911033840e-01
-2.234149422215536696e-01
-8.354482227304281805e-01
-5.644024131858702553e-01
-1.851493071017976888e+00
-8.294545917809330593e-01
1.177464141782978091e+00
-2.157042806295327367e-02
8.513759603464602366e-01
-9.581838831560966774e-02
3.867753657204828222e-01
5.789246367726363918e-01
-4.047545973793438834e-01
-2.351413870594121561e-02
-1.028882874748128673e+00
-6.626140338942881902e-01
-6.748199572340237706e-01
-1.370138795569247891e+00
1.616968002074015143e-01
-2.261821207383227228e-01
1.284152974827746707e+00
-3.741406342923250250e-01
1.801984266401115697e-01
9.945531972630103912e-01
2.388657940755281484e+00
-8.912405203878355220e-01
-5.714845591089896537e-01
-7.956490498116517429e-01
-4.198524829081672904e-01
-2.366578076249119533e-01
4.455348108340608237e-01
8.734242078872340720e-01
3.108662442190437969e-01
-2.682276364636231869e-01
-3.177790241291610779e-02
6.427110509846688524e-01
7.867869847017261442e-02
5.468293800426699686e-02
-2.082133794761755752e-01
4.646607267070174130e-01
5.257619201280083754e-01
8.822248728114209237e-01
-5.650194260758747422e-01
9.077197578253517474e-01
-9.940503222664711647e-01
6.964632120426899053e-01
-3.132801873952826832e-01
7.064988957084511467e-01
-9.253645882548754420e-01
9.811405484401479749e-01
1.824334142786260549e-01
-4.954576105226066174e-01
-9.639725826106902984e-01
9.662942020406258825e-01
1.172278294601029280e+00
-1.405687347978418433e+00
-6.423534809286803871e-01
-6.481665404544351139e-01
-9.103081394862536646e-01
-6.271898122092735006e-01
5.700856489706928043e-01
-4.973783652845522041e-01
-7.344685742509990956e-01
2.347811574439705173e-01
-3.199422763907244227e-01
4.682988721380437758e-01
-4.447032315348845022e-01
6.422954575027540747e-01
-5.450603373512920014e-01
-4.055586728093765747e-01
-1.569547809005341077e-01
-1.787193286931121561e+00
3.890967110732435064e-01
-6.742945373356580285e-01
-1.055010828559960201e+00
4.959828708354834803e-01
8.210727390742851295e-01
-4.449723362646971769e-01
5.327373272408575389e-01
-5.749538799320080135e-02
-7.909994963890221165e-01
-7.468131647167650655e-01
-4.052632843107845800e-02
-6.618493999085197643e-01
-6.418169055248098553e-01
-1.271471956401258652e+00
-1.090857103075735246e+00
1.024485105396817586e+00
9.647180450599167623e-01
1.982905582055824456e-01
2.949638909235584652e-02
-1.411071580246389401e-01
1.705548233129420416e-02
6.804814181349402302e-01
-1.401069032132839509e-01
-2.356256417286997640e-01
-6.925212785564716089e-01
1.103620735754369253e+00
-1.366921687528518670e-01
-1.511309436744315282e-01
2.229693846902719156e-01
-7.828197420571054721e-01
-1.172464866130279587e-01
3.643732531331890234e-01
5.007499809298266991e-01
6.979720884533235914e-01
-1.357034322303908525e+00
7.571403878578015778e-01
-5.017830997133128079e-01
-2.307306094368446192e-01
-4.354016212674878261e-01
5.021446495004590060e-01
5.223598600144191417e-01
1.062727053645109443e+00
6.207916145041990630e-01
2.117697280413855798e-01
-3.658841644585958952e-01
8.277775290111552553e-02
1.185863583232013158e-01
9.607259030012583745e-01
8.352648749840062281e-02
-2.311446667903717389e-01
1.792549236820304204e+00
-7.032173679757953710e-01
5.810279747745848988e-01
2.523192730159142250e-01
9.304786729476239859e-01
-5.376935215188874961e-01
-2.431482227613097347e-01
2.900200687099376284e-01
-1.462767293700250049e+00
-1.637683304453589006e+00
-6.263565834144846356e-01
-1.221239397386588849e-01
3.243508399210187632e-01
7.535900621631994589e-01
-9.558927066746050194e-01
6.044946710945786617e-01
2.504478565347474373e-01
1.134074012051837999e+00
-2.763653278009388717e-02
-1.848054785861293625e-01
-1.226654685871355621e+00
-2.664356651368713358e-01
4.440108056751992244e-02
-7.745329409355926342e-02
-4.558824042774786145e-01
-8.797992076242963644e-02
1.402944841605860415e-01
6.577317889948422480e-02
-1.317062985610221393e+00
6.121767812107761220e-01
-4.549147350632548603e-01
-1.424205041181644704e+00
-1.393783340525089620e-01
3.772300658576064891e-01
-1.243355520282057869e+00
5.709133013764676745e-01
2.247331744276840626e-01
2.483341314508351882e-01
7.266789629836499786e-01
4.867828293873879830e-02
1.835346672442266514e-01
2.724043718971015382e-01
9.496460449430035311e-01
4.058948896899510217e-01
1.247332245983592047e+00
-1.826193631616591428e+00
-1.049787504416327177e+00
-6.458292129450824426e-01
-3.656906368192563983e-01
-5.336586538656581391e-01
-4.893393910897428367e-01
6.865921309580033660e-02
3.497845554725698136e-01
2.024881798264845378e-01
4.942910995180108125e-01
-9.976338688156535239e-01
5.533222123844757645e-01
3.545155367711830263e-02
2.087030654354243234e-03
-3.200635326221835109e-01
1.843838735182830868e-01
8.399494906095450464e-01
7.443661425748671068e-01
2.506217831945507513e-01
-5.785858075551192359e-01
1.229931654081957815e+00
-1.288889665439319598e+00
-7.985399744939685185e-01
-8.257198341724926172e-01
-1.367219874541454550e+00
-1.930406970635122788e+00
-1.607914712760062814e+00
-5.449081069990624471e-02
-3.360803443615264195e-03
4.547506541721844098e-01
6.487692848462613959e-01
3.275733349585424059e-01
-3.082563673756806288e-01
1.414674190858541680e-01
3.894375166502901664e-02
-5.611900496137119942e-01
1.056142060928535464e+00
-1.957239606119607900e-01
3.051427814271395200e-01
-3.097260059622641282e-01
1.349308827996043569e-01
1.546653401172172829e-02
-1.071411900437163611e+00
-1.710378047929856704e+00
-7.017021826020596320e-01
-1.615610247400876887e+00
1.077809908331765598e+00
2.913138457335749942e-01
2.878287320765514079e-01
1.049799361327790725e+00
-7.568858483351252886e-01
6.099160320780463440e-01
-8.118354841081600881e-01
-5.045593560482892759e-01
5.966709227197867227e-01
6.809335975890824788e-02
6.784600879504646409e-01
1.426992351762118305e-01
-2.104658431087748360e-01
4.917421523417522256e-01
-9.135809044324172401e-01
-7.613552563185180255e-02
1.442992147902988131e+00
-1.059169544152993137e+00
9.933427095276267660e-02
6.666391642421031216e-01
-6.951168763029773601e-01
-1.042094192395068619e+00
-8.173159384801663707e-01
-2.506895755403864556e-01
-1.517867644942391347e+00
8.088507198737883430e-02
2.936239509278474880e-01
7.363328956860861751e-01
3.455109954614191126e-02
1.984627489678909493e-02
5.379212213745497573e-02
-7.342896305422760839e-02
-4.482625544454931221e-01
6.607872767577298578e-01
2.217217097117453115e-02
1.354481902946467198e+00
-4.709845035776892563e-03
-9.859955907619347149e-02
4.849342676780675210e-01
-2.528793193975366616e-01
3.273479138727302118e-01
3.706722305278450369e-01
1.901570802482517031e-01
4.434061597911905239e-01
1.491240060570189208e+00
8.804456275189304071e-01
1.710341487470800892e-01
7.289980851192544298e-02
-7.944594884363951337e-01
-1.289836921401423364e+00
-6.135937405939575484e-01
2.004320309565357228e-01
1.163826344653509981e+00
5.421653664742149825e-01
3.621015107649053211e-01
5.550669487659465329e-01
-2.646860813823346814e-01
-2.796731769642443743e-01
4.928318588759699193e-01
-3.956939597327078784e-01
1.873237995816668278e+00
1.033734481212221112e+00
-8.650586295388853486e-01
-1.673440254296415075e+00
-7.268090684219047359e-01
1.053628714982879355e-01
3.232327115434965314e-01
-4.163510851913242994e-01
9.465432795150700851e-02
-6.982569258362831821e-01
-6.212311666732660553e-01
-1.308217790974570971e-01
-4.726317291868657455e-01
3.099099664627432693e-01
6.458323977769758750e-01
-1.023506785827334453e-01
-1.452205228226698397e-01
-1.040998592904645859e-01
-9.193387554679806062e-01
2.460093333273380423e-01
-1.047100178136084747e-01
2.408019531875206787e-01
9.611424107323255361e-01
-8.822232143041741637e-01
3.756312575011364063e-01
-1.518419945609333466e+00
2.528561362995087602e-01
-4.213434197713028517e-02
1.424999185966590476e+00
-1.344520149706408096e+00
7.821198091163519273e-01
-2.961618830503988109e-01
1.140159939700872593e+00
2.987789628820618493e-01
3.264128223414054508e-01
-8.368894902266931224e-01
5.708466680701563406e-02
1.752190575646315418e+00
-6.742353460266860277e-02
4.887011940394756504e-01
1.574067190381513437e-01
8.365883081404441590e-01
-8.868130760145859215e-02
4.703063510161109018e-01
-5.387471414646580747e-01
2.494920335492463101e-02
1.987199807083010750e-01
4.347160437458449933e-01
-1.526125674799824194e-01
2.461306589160121294e-01
-3.218899602555509998e-01
-1.473604679455547684e-01
5.282111442679322533e-01
-3.960975148693039460e-01
-1.484388185819649209e-01
-7.347818654786353321e-01
-3.235161492209059353e-01
8.133232540464826466e-01
-3.345258464398740417e-01
3.796873992605202808e-02
6.363652570312225976e-01
9.760669714178029643e-01
-1.977383427278426864e-01
9.708222416348186168e-02
8.367915103339181038e-03
-2.492143741785870781e-01
-2.895240238122157028e-01
5.614120852111547100e-01
-1.013902788575784308e+00
-1.446138314603246378e-01
-8.784748438298684015e-02
-2.728026233798854228e-01
5.009081367101841931e-01
-8.176589094506730993e-02
-3.618095803514650433e-01
-8.075841015112731336e-01
-5.070486983871582698e-01
-6.542264460659412695e-01
-1.267643885147212046e+00
-1.222062986039589960e+00
1.807131979851262504e-01
-3.800927242096496794e-01
3.799859265752806442e-02
1.564121916159826320e+00
-1.280612346567589765e-01
1.062565142504309224e+00
-1.650529537457868234e-01
5.374270329528187951e-01
-1.003662311900575865e+00
7.122416459626823571e-01
3.467013901642638229e-01
-1.836405024449377921e-01
-7.140107845928711505e-01
3.879850035790940455e-01
8.774343694648916170e-01
-4.482491339174682343e-01
-8.025574750266593060e-01
9.371918938484072314e-02
9.489655843738444840e-01
4.124622962250233948e-01
5.661956847517633784e-02
2.152232704227770022e-01
1.175379379722166107e+00
3.836479171155400825e-01
-8.116449663670366466e-01
1.632553325555646251e-01
7.470064679234410532e-01
-8.105671022937684100e-02
8.968696196960493916e-01
3.322169812590546334e-01
-5.793829134324551822e-01
-2.100447568756693972e-01
-1.070728240966472899e+00
-3.966539278497694387e-01
-2.965392444536714134e-01
6.518703770573180956e-01
-3.351021053048168219e-01
5.335090227696525078e-01
-3.808484397201550298e-01
1.454661531526462992e-01
-9.111401483384573563e-01
1.471144516651170242e-01
9.452334027959873736e-03
-3.986804692646419013e-01
-1.065066401373226113e-01
4.324550456330401027e-01
7.676091999161746005e-01
1.589148771919813852e-01
5.476490864270555647e-01
-1.068776423286234151e-01
-1.241021764248785297e+00
-1.553436692075543579e+00
6.998618125983785410e-02
7.402271723669767711e-01
2.706282849744768848e-01
1.139877965589324527e+00
5.435968859164597849e-02
9.913369602957200488e-01
-6.903423813916227392e-01
-1.743927768274552426e-01
-1.386916943769525845e-01
2.318637556333550537e-02
6.088605202358589492e-03
8.396625878253353159e-01
-8.501758934502140486e-02
4.480168977221818394e-01
-1.001558305257980175e+00
8.825011057867735431e-01
-2.059001986101153536e-01
-5.476928842967169198e-01
-8.379955526642267616e-01
1.886634019987032951e-01
-5.353115899350874285e-01
-8.501691398365165409e-01
-3.798702171426884266e-01
2.379180054810343670e-01
-6.475193507741028309e-02
8.702892333027212324e-01
-5.870524829140487677e-01
1.239190228047183373e+00
4.427666039621621641e-01
-4.705783110682478232e-01
-3.216818733118176343e-02
-4.968798480070957813e-01
9.587963918226567739e-02
2.600313261655496921e-01
-1.141484183130385244e+00
-1.571238370762609415e+00
1.806409487112570211e-01
-1.761259343309068068e-02
3.522090828769610105e-01
-6.571133243373166177e-01
-4.144532458852581147e-01
-4.874346078192638987e-01
7.405341269602361276e-01
-1.021363580151792627e+00
-7.349703256079698210e-01
-1.940083215495195912e+00
-7.895165657389678904e-01
-1.290789977184175541e+00
-7.855253596473341648e-01
-9.276712125629190675e-01
9.107645050803658826e-02
1.122535156472632467e+00
7.139409427137455300e-01
4.785556748669270166e-01
-7.129584597964926385e-01
-1.296659267555708983e-01
1.588981400368340291e-01
-3.441721740514820937e-01
-1.343507408480275389e+00
6.668909271961609431e-01
2.925056138308617659e-01
4.624612380865266159e-01
-4.781460766151721109e-01
9.802264778186037253e-01
-9.614667210985003987e-01
-1.533775239382530797e+00
-8.451725376649502075e-02
-8.696096349582265184e-01
3.443487869678958369e-01
1.200387646458084046e+00
-4.859718065235194701e-02
6.260875309099089847e-01
1.359846848550977594e+00
-5.351295761524853534e-01
7.001791226529965328e-01
-6.364947636732523062e-01
9.276032047165466699e-01
-8.834517817797740147e-01
-8.882322063924993905e-02
9.843147822187073848e-01
6.647011706821368549e-01
8.691163103046135596e-01
-6.774996786860577602e-01
9.256596274483124276e-01
7.791378225944138591e-02
-4.163223091109403140e-01
-3.803463137109717174e-01
-2.308148427360819377e-01
-1.076391919706212313e-01
3.656876554821753555e-01
-8.620523702467162985e-02
7.925892412429970113e-01
7.360548410730519686e-01
-3.061856390316363696e-01
5.018286466484010999e-01
1.030727392938633746e-01
-1.090573156764958807e+00
7.008198306197239713e-01
-4.872430166195073076e-01
-3.228941271186134832e-01
1.731500385536091646e-01
-3.965245858925977029e-01
-1.109579512186223527e+00
2.648348721406711959e-01
-3.234538134789557984e-01
-9.124689635834148937e-01
-6.539669711944011699e-01
2.493243354301620807e-01
-8.054188748580057844e-01
5.042595935605937996e-01
3.715471381366760584e-01
7.706665704126527405e-01
-2.775687465663737585e-01
9.632217117620103242e-01
-7.083822264534256341e-01
5.144631786878485213e-01
-5.676341351368978660e-01
1.648260538969065492e-01
2.550729488935307709e-01
-8.440227042074263664e-02
-3.905286284998013002e-01
1.568932987849702976e-01
6.976819667173572888e-03
2.509016345210849930e-01
-1.149325360889346809e-01
-9.490542604720813014e-01
-1.181949235176529833e-01
3.823469440866792413e-01
4.412745937198596369e-02
4.429693399769722983e-01
1.816349525709379936e-02
4.562707802568334858e-01
1.266583993857933299e+00
-1.573298752116110810e+00
-3.327348116798533040e-01
-4.100265325289543239e-01
-7.733367043024128584e-01
6.830594336631312657e-01
5.602879008916313713e-02
4.202430847542145131e-01
-5.140398742442878754e-01
1.078346755565841253e+00
-3.479744288506335659e-01
-4.539346051689024941e-01
2.082785579608443516e-01
9.549680692891060474e-01
2.015914644882535800e+00
-1.298233856225716298e+00
-7.719883912314007279e-01
3.925808457818334429e-01
-5.014748640753666775e-01
-3.206750884071869756e-02
-3.074700268198514268e-03
-1.123622070822535846e-01
9.123030299927036291e-01
4.562756917288052771e-01
9.276870451341471258e-01
-3.013452234328422574e-01
8.645423701241333747e-01
-8.185657592894509671e-01
-5.102273760440814154e-01
-7.322343011061747120e-01
-1.069553078139552360e+00
7.445811772517656711e-03
-2.349724765633784684e-01
-1.082997587041877097e+00
2.388036228893719581e-01
-4.103066848642312747e-01
-1.667235189731852973e-01
-9.854036746376880762e-01
1.689603935023741510e+00
-8.589733751707383513e-01
-3.843719158206984621e-01
3.656482784766201810e-01
1.145521838139563320e+00
-5.535156465527830694e-01
-5.292769245646040677e-01
3.541114673326748591e-02
3.167218056953424732e-01
1.378368040290302576e-01
-9.397740249178629934e-01
-3.465874656913677243e-01
1.403424886562532947e+00
7.845365556615627733e-01
-4.733662768833533652e-01
-7.644496471120229009e-01
-6.534267325041812624e-01
-1.100231653432234058e+00
-4.634501719803232889e-01
4.251088690506041878e-01
-2.474450499269238435e-01
-1.340086930180996450e-01
7.266026863364500876e-01
3.939098786630475524e-01
9.432879157047001639e-01
9.549145190488284030e-01
-3.236450001607901750e-01
1.886114442534902180e-01
-8.038972189514347333e-01
5.496268056295556814e-01
3.756224551512525878e-01
-1.330400207217353969e+00
-4.067988687505783574e-01
-1.177060184042715285e-01
-7.113439827069533150e-01
1.619498255054654251e-02
5.772185055811438481e-01
1.019156509879939887e-01
-2.511340768046757543e-01
-1.602237303949739233e-01
-5.672223632246904401e-01
-8.595813285943454396e-01
1.277001572580020901e-02
-1.254155955427567817e-02
-9.434776803025548553e-01
-2.494213586290225659e-01
-5.210261437915801597e-02
-4.409787830604456893e-01
1.524305204509085465e-01
-1.503904004962338670e+00
-3.419422342727415076e-01
3.663540817791331727e-02
1.690378471964608442e+00
4.593745133998819452e-01
-9.988580862762206358e-01
-1.586044476484929966e+00
4.594264771728800989e-02
-4.230274606741669108e-01
3.610838195959957808e-01
-6.301816474614976293e-01
-3.962989892728421837e-01
-3.476252033903129979e-01
-6.369692251762128221e-02
-1.112678621491808739e+00
-2.010783035464119017e-01
-1.279498697924065231e-01
4.397099651499994932e-01
2.151354499974625079e-01
-7.914608757680389184e-01
1.356481474101302320e-01
5.453386950815700684e-01
1.592781978208940519e+00
7.517988317866880488e-01
9.572731514994008151e-02
-7.627704824608270984e-02
4.962227074560816575e-01
-3.472268605909497596e-01
-7.893378953219101213e-01
-1.675650011885717605e-01
4.421503701162316502e-01
-7.110624054318829268e-01
-9.186006383634253147e-01
1.132508230856603015e+00
-1.331944158472975648e+00
4.222296873374905557e-01
1.824403881774707692e-01
1.894781642258606125e+00
-3.517494469224920484e-01
2.499391074719006789e-01
-4.128812222416317068e-01
-2.967866372381556261e-01
2.480270562385478161e-02
-1.221427154249600799e-01
-7.300918817924780813e-01
7.263071903393136797e-01
-2.938070342095181961e-02
-1.773498149892996478e+00
-1.388044604601060827e+00
-1.153037591502524384e+00
-5.068280203621581270e-01
-7.703858536631313925e-01
6.794552920498211357e-01
2.737701216069155508e-01
4.142402878246622122e-01
-1.202181442390465316e+00
-4.380011731099960892e-01
5.016124497214807798e-01
-9.505523675934844929e-01
-1.634277237538670491e-01
7.290329803258442931e-01
-1.385627959453265445e+00
4.424110117330330716e-02
5.939728687023173581e-01
3.245184682330749526e-01
-9.773672806647134559e-01
-9.701911712578642488e-01
6.426434150032901693e-02
-3.858972559428565374e-02
-1.237928329671804883e+00
-1.094362962376782766e+00
-3.717568050017165393e-01
-5.073252102653442730e-01
-4.312583597684342407e-01
-2.793582423584301533e-01
-6.933953505761832892e-01
-2.065204141960131079e-01
1.060699187774450380e-01
-1.305891883195966718e+00
1.048350350500427131e-01
-1.257386964063817114e+00
1.279547327118134847e-01
-9.080077992942485743e-01
-8.068315459410765333e-01
-1.949980041661091568e-01
-4.791049928704321226e-01
-6.477564210429496983e-02
-1.204676455769434773e-01
1.047599668849991783e+00
-1.752003854335122401e-01
2.381231792694724902e-01
-1.098770010893483473e+00
-2.775341099011417456e-01
-1.117725348409807973e+00
3.961703223028358312e-01
-4.499459819666959959e-01
-4.664706800291705258e-01
-2.743084429522942291e-01
4.426382165372705346e-01
7.728589174265801387e-02
-8.970334994592948918e-01
2.690823323722294491e-01
2.875699980881135098e-01
6.566693836504489123e-01
9.861674171988718540e-02
5.402400459195090265e-01
2.438153904506100977e-01
1.407835297057068724e-01
-4.041579431047791493e-01
-1.065338281953367883e+00
2.546154197345001924e-01
-3.931628205782980445e-01
3.160528324536362454e-01
4.296234129139249180e-01
-3.563835435095961124e-01
-4.167192302750057364e-01
1.256167040607004681e+00
-3.347224049970326520e-01
1.486797259525748593e+00
5.098973435181520797e-01
3.559379260225715713e-01
-1.031202988143301802e+00
4.965933754061961913e-01
8.820819182860355490e-01
-9.389184761509357102e-01
-1.219380849484759333e+00
7.599285892068348147e-01
-1.162646607263692511e+00
-1.341709311501064095e+00
-8.442297577977494472e-01
-7.245494857093049967e-01
6.359940886487622791e-01
-9.129249113379809266e-01
-1.940206959160818978e-01
-7.650239680610424475e-01
9.620914387844207993e-02
-3.876193927947350071e-01
5.604491881387601016e-01
-8.624065902736489653e-01
-5.731260800765589636e-01
3.904910383393188078e-01
1.847345752480920311e-01
3.868236017048257147e-01
-5.655182731738505053e-01
-4.938800462009374503e-01
-2.962912103049466020e-02
-9.105150033297223500e-01
-1.279200380989530927e+00
-1.251343351297775075e-01
-1.385581713575914087e+00
-3.861872621521980631e-01
-3.855999869042390227e-01
-1.691538843344256304e-01
2.257768865400701652e-01
6.271403984898304973e-02
3.177579418830579483e-01
-6.803719638256904290e-01
2.667544373247449641e-01
-2.152045158897359090e-01
-5.491397259089647598e-01
-2.902626690806096588e-01
-8.994222282035395644e-01
5.383352447672314911e-01
1.213495314112806200e+00
1.076594637194208115e+00
-6.260614045340719969e-01
-1.770697212886820582e+00
1.843478279702873146e-01
1.972996587836997953e-02
-1.253124041921832355e+00
-5.053072370675834590e-02
7.424948938890312267e-01
-9.255626285627070737e-02
-5.269992114544459483e-01
1.349409956025919399e+00
-1.231332986446023459e-01
-1.157039285685539820e+00
-5.572317471399363953e-01
2.637400419007788765e-01
1.447421520488856084e+00
4.937916035824514993e-01
8.725368281403090773e-03
4.097164460212258108e-01
-3.893004816398816792e-01
-1.496422908029598542e+00
6.373510285151445798e-01
1.706788432600870320e-01
-8.038750841804288561e-01
-6.394597237793191447e-01
-1.088769295302037143e+00
3.688585620255504516e-01
-9.142862852235170701e-01
3.811080719689901586e-01
8.974198560972688199e-01
-9.533637043356413265e-01
5.985391886522752752e-02
-5.749492508922187106e-01
1.307159017993178463e+00
7.151413577388506804e-01
4.916432304934709729e-01
2.590708156511999372e-01
2.474691764239047090e-02
-2.392525546224908220e-02
-4.159446381452927555e-01
-3.765083588214860888e-01
-5.410647686875679208e-01
4.562532346220280477e-01
1.705753395191885458e-01
3.542764967024571443e-01
6.382359878185832613e-01
1.149753992722534646e+00
-4.348905368709660157e-02
-6.153495815311217365e-01
6.887997112925405840e-01
4.282061720807828209e-01
7.995803657906211948e-01
-2.087016732800631713e-01
-4.723925106928806433e-02
8.596166412192519646e-01
8.339973287701271110e-01
-1.401791997757062314e+00
-3.250151752155880369e-01
4.686121371995803919e-01
3.120949023682693668e-01
-1.218869685315239426e+00
8.472307380849836145e-01
-2.733321464475618398e-02
-6.645273184777484854e-01
-3.751983928321683259e-01
1.118389413157294815e-01
1.217480291907375944e+00
-5.162420499291492382e-01
-4.308957162710638222e-01
-9.012663145302661494e-02
1.745317324636099787e+00
7.922130423072074601e-01
3.784438317555629400e-02
8.591747307865373884e-01
-3.181256420251053763e-02
-6.618578060340034597e-01
8.828553770365067388e-01
9.260935896486433005e-01
-4.479525687260533240e-01
-5.743436654452841600e-02
2.524940871033639067e-01
2.228963074309681658e-01
-3.041378333108647053e-02
4.974899532222435972e-01
-1.647597930868324401e+00
1.410364556507292422e+00
9.474859765183245297e-03
8.396438933878329347e-02
9.584714889022674100e-01
2.228462247042415356e-01
-5.947759460483499350e-01
-2.398879643603513967e-01
5.778309298482084966e-01
9.309930174358586885e-02
-1.418987545086728697e-01
7.181030527692202625e-01
1.346380325155399849e+00
-7.440679954810567320e-01
2.766878065077648663e-01
2.418356676588497706e-02
1.160306645473085485e+00
6.617362669884128135e-01
2.451728808352708899e-01
9.348432194184702615e-01
-5.853199594050605414e-01
1.005330265534931877e+00
-8.579803481937954279e-01
7.210817092090416880e-01
7.541339769124739689e-01
6.429484067539132930e-01
6.068367091540024516e-01
-2.343400680727244223e-01
9.505993353797601575e-01
-2.483045588934882364e-01
1.701120467835525452e-01
3.862781151822129028e-02
-1.521374517211568689e+00
-1.520985614381369921e-01
7.507987641017350722e-01
9.323932164815390555e-01
-3.379741394767314944e-01
-4.015111771283218500e-01
3.746285514354980029e-01
1.600000657711590224e-01
-6.690706529900352084e-01
2.364627792721519239e-01
6.952418787493921393e-01
1.674249352743289565e+00
-7.119565957421536417e-01
2.227973868228273480e-01
6.649282026498213316e-01
-1.113112023777535972e-02
-2.257629210471586156e-01
5.952767793361779525e-01
5.802325998196690149e-01
-4.524928767759454629e-01
6.773594107554646859e-01
-1.159299272943908887e+00
2.742972088947388115e-02
1.520619151866678287e+00
-1.112169973545868773e+00
-8.375439250093309473e-01
9.277118400835706602e-01
-2.269314639142423207e-01
9.506964181943549086e-01
-1.015427506867228935e+00
1.167153852150877302e+00
-3.762460224138869380e-01
-2.560271596615873446e-02
2.412219565225017237e-01
-5.784503001490838292e-01
5.760976811182240143e-01
-2.261367417465061369e-01
6.768634333650056512e-01
-7.566328871379208731e-01
-3.826210700926219732e-01
1.815066817487096806e-01
-3.160498799489653288e-01
4.990755982859872986e-01
-8.207189932785962094e-01
-1.904974606575392249e-01
1.457245461829186350e+00
1.647819760063152228e-01
1.940469862135792978e-01
-1.949386451352197236e+00
-1.190128833072552128e+00
1.479204753683702744e+00
7.370548681891005982e-01
6.696917972520864959e-01
-1.743009222969337690e+00
-1.625491945917964642e+00
-6.663817318782691013e-01
3.735165413956805236e-01
-2.566200677420842347e-01
-1.008861910117704097e+00
-8.728188487768787085e-02
6.700020461128163018e-02
5.873028835938495229e-01
-4.660674711453133834e-01
-1.395680290144759361e+00
2.918977038877718644e-01
5.750688969332640177e-01
-1.914231692978874522e+00
1.087520272126235588e+00
-8.738826401200688876e-01
-9.138511596982882290e-01
-3.980372484680317902e-01
-5.416708355753888093e-02
-7.675081783799327928e-01
-1.356167096998334154e-01
-6.700790589562268806e-01
1.165128197671427612e+00
3.680100962534496589e-01
-1.377691589566107100e-01
-2.987428481436777417e-01
-6.361997450022770506e-01
-3.876387190889073464e-01
-2.628135453735633287e-01
6.691207340000567827e-01
-7.794613332272228856e-01
-7.198530245482948065e-01
9.236071809454360348e-02
-4.517067059778891447e-01
8.236766585121714501e-02
-4.215467415280208519e-01
-1.058208215646471384e+00
7.348433075647654855e-02
-1.878425031438732684e-01
1.433967098687825237e+00
-3.674319344059648884e-01
5.493744129682551769e-01
-6.214649059120804786e-01
5.728722825254621842e-01
6.137825749412761933e-01
-2.670962629043834372e-02
-2.414868635795729968e-01
-1.909137542378817609e-01
-3.056071163727617224e-01
5.974722496137798711e-01
5.049845016896652439e-01
-1.566775840997356228e+00
1.057313741788056816e-01
1.270340552296595760e-01
1.531411828195443081e-01
-1.044337389077075288e-02
-7.082750631507500616e-01
-1.279101755309865140e+00
7.573640062447060117e-01
-4.879207367992740019e-01
-9.604790251985317884e-01
-1.865534321232585446e+00
2.838700389958435655e-01
-4.895631839977457322e-01
7.005217038059007306e-01
-1.868997486698696642e-02
2.274069367813764120e-01
5.352837019200129554e-02
-2.995323172789844945e-01
8.849687020067596999e-01
-8.660205028590912679e-01
1.043344477933477288e+00
5.480701974853896541e-02
-6.287438896100828734e-01
-4.554621785498160214e-01
-7.553547663294390979e-01
-2.164321749500898451e-01
-9.728687012266259426e-01
4.890849537545473476e-03
-1.521969882144925235e+00
3.146135630414868545e-01
-1.251022198668048646e-01
1.087094761864510373e+00
1.703603114268019136e-01
-5.410473073132171518e-01
1.620255642049832356e-01
-4.944458417935715944e-01
-2.844174192921962163e-01
9.247095474931092685e-02
-4.299633836239259432e-01
-5.246093535705146360e-01
1.029657970434947778e+00
2.894739882815728915e-01
-2.997998558493544796e-01
6.245176692570950649e-01
-5.756388121287189102e-02
9.404748501098354474e-01
1.197328730685880638e+00
3.446817744935161132e-01
-7.794028240251561490e-01
1.754709891313790848e+00
4.545068665998312496e-01
-3.448212345114384791e-02
5.164685875518677527e-01
-5.814666347522700063e-01
1.184257061811650580e+00
-7.174382667380737599e-01
-4.999590871254410707e-01
2.349959488294523224e-01
-3.522940567781118193e-01
-6.236449520866867990e-01
-5.962631798181673021e-03
3.575852225676515173e-02
7.403686477157139789e-01
5.229121170399086971e-01
-8.408210733864076580e-01
-1.345719528194049275e+00
4.354281543575828084e-01
1.634872036956932229e-01
-1.840739484771465595e-01
4.593920180197543779e-01
5.283937779786910260e-01
1.978804317199598928e-01
-9.894340394096207136e-01
5.374369808222988487e-01
-1.318548278700762584e-02
-7.781787679250216083e-01
-5.319687952606922954e-01
-4.278947750842765907e-01
-3.545394928358561182e-01
6.541535786405368036e-01
9.463010252500128061e-01
-4.553849368949903775e-01
-1.445660347195194317e+00
-7.553104119531021121e-01
4.940577059420064310e-01
-2.687140856751982221e-01
-9.999959999772665975e-02
3.050947433364090688e-01
1.174455075945463056e-01
2.901478303444903761e-01
-1.071505726742934539e-01
-4.484694004160879044e-01
3.836113208053048562e-01
4.993900598107004485e-01
1.242131124666717268e+00
-1.489786573179995195e-02
-8.705192648347450657e-01
-3.073009736410856618e-01
-1.294964089198808566e+00
1.222798736650061002e+00
-7.799410174660219575e-01
-9.553999992757796766e-01
1.277439676567815874e-01
-1.340197281967526743e+00
-1.095520441342131002e-01
1.258529255628031696e-01
-1.645835940427221866e-01
-1.544114635623159981e-01
-4.572998412849659661e-02
-1.263916946254299845e+00
6.540132283707413841e-01
-6.790967037634882963e-01
6.636078661398100431e-01
-8.154880889398100074e-02
-6.377629524481868151e-01
-7.436482427860776623e-01
-1.519849444732728760e-01
-1.280367937775616305e+00
9.640560690852835179e-01
-1.756563869109055043e+00
3.906956396565368084e-01
8.996345605341883600e-02
5.927146088283697933e-01
-9.705666283892988577e-01
4.391032238657530118e-01
2.763604397298250470e-01
-1.629630307346687124e+00
-6.919895222044399885e-01
4.638895125142590281e-01
-9.798620795024243213e-01
-3.953293937313875350e-01
3.743889632144797863e-01
5.236692724952142219e-01
-2.398602308881152001e-01
6.024972174495230037e-01
5.361702696439613058e-01
-1.581398526215498923e-01
-1.471630121343575182e+00
-3.764350963364416769e-01
-9.436669930077704604e-01
6.078915322883616801e-01
-1.872237829566449019e+00
-3.591481178349467118e-01
-1.007349511656210339e+00
9.358286242060223636e-02
-6.704623001207635213e-02
9.609721747697844152e-02
6.360103375314787311e-01
1.144740533827399431e-01
-8.699062242332186168e-01
-1.186522870362505921e+00
-1.213965486059099819e+00
-1.481863707108308725e+00
5.417234011343249334e-01
4.587663623892302978e-01
-5.239361980774767114e-01
-1.399124337853296041e+00
-9.949283848342425907e-02
3.087230300402536987e-01
5.840577919112694971e-01
5.632778278195547106e-01
-8.490226329684961992e-02
5.625371653006139283e-01
1.504445507369339463e+00
-5.803678199156470097e-01
7.753094573290920666e-01
-7.587623357512508493e-01
1.339236400052143949e-01
8.715201757281120232e-01
-1.055427974614310482e+00
-9.124995618793476648e-01
9.775046853545340531e-01
-5.894589822026443660e-01
7.211498909879697772e-01
1.274702678531205002e+00
-1.541774142313082074e-01
-2.736659534698276941e-01
6.926274624140964509e-01
-2.138293107737546106e-01
-1.310576546745837456e+00
2.737666021640157155e-01
4.657047534669609412e-01
-4.486832501292706277e-01
-1.494377083424281771e+00
2.916641576067009467e-01
-8.311487235027426035e-01
7.993950030316494537e-01
1.270838486751486807e+00
8.793045683788927036e-01
3.884980658992922553e-01
1.322142382362030189e+00
-2.424901756272193065e-01
-6.321828470944445590e-03
4.932675520093906529e-01
-3.099963776258425341e-01
-2.387666964216778320e-01
1.229411105981263130e+00
2.999873931079706235e-01
-5.317274712131987435e-01
7.734974696241900816e-01
-4.642801490368219652e-01
-3.061037979209297322e-01
-4.185325875808469931e-01
2.507706237747162170e+00
-3.924479422653484040e-01
2.870930792073968507e-01
-9.977772397847142205e-01
-3.699951401209500279e-01
-7.243142919300045168e-01
9.081571269242230127e-01
-1.021346609498335334e-01
3.283432750705411740e-01
8.069133856050659803e-01
-1.357433377439231093e-01
-2.953271457341887785e-01
-4.772620729592783051e-02
1.093396200612386515e+00
-3.379747249272602727e-01
-4.412662583779060621e-01
-1.730250985497002736e-01
6.212931159725534197e-02
4.669836601983717861e-01
4.147553354851832852e-01
1.552674431979632341e-01
1.156294130437627854e-01
-4.878784150806241282e-01
5.705237218973163715e-01
5.466517524639643577e-01
5.096851787466168959e-01
4.921970698626099150e-01
-8.441831798364716200e-01
1.608815997404891007e-01
-7.033303812584268400e-01
6.451914533188599643e-01
-2.674085058453289365e-01
2.507242636528049240e-01
-2.416469057111362562e-01
-5.618519283415671639e-01
-6.232431822264469234e-01
-6.164896350255185675e-01
9.829254015065974626e-01
6.546214052074004197e-01
-5.925125988644879271e-01
-1.133690525264872268e-01
-8.898331227548895717e-01
3.245693331685270411e-01
1.465203166006041335e-01
2.247100221411659215e-01
3.438270247516338474e-01
-2.018050833828309298e-01
-1.114909292617536796e+00
-4.621138554476605931e-01
5.836566455417429022e-01
-4.752960675968040949e-01
-9.370543906423909331e-01
-5.156707849324506654e-01
-3.135134365095108566e-01
5.706790057887485557e-02
-5.590029561176311779e-01
2.208793955099028761e-01
4.438479006745100208e-01
-2.727674370710049256e-01
1.023724055909031927e+00
7.711399647848894423e-01
1.029671314997085529e+00
-6.812662105628085607e-01
7.172172153427229802e-01
1.374340189774501085e-02
-2.088975364172874494e-01
9.412055106005922100e-01
-1.123823070229453602e+00
-3.450458852627301398e-02
1.038489147502723142e+00
-4.656424500465778382e-01
-1.366294112142102390e-01
-1.045870696370441610e+00
1.695621071194882978e-01
-5.209103709893919687e-01
1.939681430433131681e-01
-8.217216518370966671e-01
-2.230057225560828083e-01
4.121653312529139357e-01
-6.267533933236030252e-01
6.632815490739365494e-01
4.700470466207263276e-01
2.098839977242186738e-01
-4.375637363916525246e-01
-1.568278709316607566e-01
3.626542739661133830e-01
3.475572743131032927e-01
-7.276858639118051475e-02
-5.890577830047115659e-01
6.428826881701692475e-01
-3.017790774694277811e-01
8.830043473883575356e-01
1.118679727231248755e+00
-2.880048666972432891e-01
-1.580988813554271566e+00
-5.966636061352604825e-01
-1.083689741024655429e-01
1.515206221463635261e-01
8.931355918421219897e-01
1.583832174495342304e+00
-1.238322096410103379e+00
1.638035436920545242e-03
-2.910638084190084185e-01
-8.851608897871925397e-01
9.405022420315841680e-01
2.017676326315077928e-01
-9.027297860455825163e-01
1.130800457084414345e+00
-1.016427565818884930e-02
6.294488038307335942e-02
5.903330149108456659e-01
1.897634892683248031e+00
-1.457213444331118268e-01
-7.489188156287918119e-02
-4.679977406412667018e-01
4.630291415377507658e-01
-7.918218349118221200e-01
4.415214309696580131e-01
1.045822359866630968e+00
6.368612132565050210e-01
1.832270099433817911e+00
-3.099726612216858069e-03
9.587204134292734992e-01
-5.780470329502281901e-01
-1.289991970481662475e+00
1.018343093852171366e+00
-1.224338492398344969e-01
7.702568178409698874e-01
2.182253396404710555e-01
1.467559726090889693e+00
1.126816720940444716e+00
-6.220153678411632914e-01
-8.543437907499469297e-01
8.776319673729889026e-02
1.213480491549050910e+00
2.252708641396903300e-01
4.744208555910541247e-01
-1.342834188156983855e-01
-3.780038023023410410e-01
-4.777703325963300052e-01
-7.507871514443820171e-01
-2.905187222596343211e-01
-2.140828308615236042e-01
6.890592578132974655e-01
-5.764243167463154460e-01
-1.211357549523435662e+00
-1.292260808074832401e-01
-2.114579123308395481e+00
7.675606977910544026e-01
1.031212089689392597e+00
6.032890675920313805e-01
6.275408838702127845e-01
-2.368941337177944417e-01
-3.118766624449080260e-01
2.077007589995361059e-01
3.257700933968660784e-01
-2.096723932875863561e-01
3.921079439426012891e-01
-2.649606961666867710e-01
-5.149208732229774155e-01
6.830048388522762526e-01
2.333500617670964117e-01
8.303005936444126656e-01
-1.220482382843240399e-01
7.961918887560972546e-01
2.212733952852961039e-01
-8.781655069052285434e-01
-1.096897427781319267e+00
5.642930752821787577e-01
-9.142664599147062310e-01
-7.104183894443830138e-02
8.114409920326699499e-01
-1.055714566085441453e+00
-9.461205162813582925e-01
-1.318142986447514486e+00
-1.709557061059739647e-01
-1.039753009635217482e-02
1.138653213909939510e-01
5.630027705460041165e-01
-5.031063970148806908e-01
-9.226876793312506486e-02
-1.597917017634848502e+00
4.535286788429850335e-01
-1.228725815310168779e+00
-7.030278579653991278e-01
-4.322482232428461746e-01
2.311669324009444082e-01
-7.876807252077391297e-01
1.091901495999753890e-01
-3.239827876930296835e-01
5.771991065712919061e-02
1.301192470690687997e-01
-5.109740986740615165e-01
3.588909387858640887e-02
7.082415271231710940e-02
1.631892840116730692e-01
-3.417030533081459875e-01
-6.924678224915459257e-01
-6.217653020840142597e-01
-7.314832604677079519e-02
-9.210991156125570845e-01
1.562201596027599226e-01
-1.920504878846435726e-01
1.327939423102657335e+00
9.137780700022281044e-01
-4.115095527226191319e-01
-1.442851452312090554e+00
9.057473855875701751e-01
7.513356627468363858e-01
9.752977908866686807e-01
-1.095209767059131201e+00
7.245471450837194238e-01
9.616767082247267284e-01
-4.645057251268088772e-01
2.297270203848701675e-01
-8.436006441389184429e-01
6.270260263745978113e-01
3.606348945082375468e-01
-4.797402694188011019e-01
-3.576532967742749869e-01
2.446900284289548200e-01
-1.011224835248479614e+00
5.033239784873072553e-01
-8.102157028560701413e-01
8.030797877755835312e-02
-5.944933515794545986e-01
-5.890740157182676739e-01
-2.107475644215023591e-01
-6.167143184267389611e-01
-2.311953392979458621e-01
-2.437357108964229857e-01
8.201776456274363358e-01
-2.466257215427482552e-01
9.157647904689242280e-01
-1.917338564963837755e-01
-4.552258962385484775e-01
-8.279111712708080439e-01
-7.185290633710622599e-02
-2.300450720212377786e-01
-6.442052477267442567e-01
2.058422190440421240e-01
7.278881591988713984e-01
1.575314405482702018e-01
6.147925839152298400e-01
6.954642214000396061e-01
-1.432444931466942406e-01
5.844474620895744321e-01
-6.760703808671084669e-01
4.516973995016195231e-01
5.900628322566514594e-02
4.290669923033578748e-01
-6.288301297599009354e-01
-4.392309656352313407e-01
3.065356217699439223e-01
5.512317073858088445e-01
2.758132607070966080e-01
-4.129486571234086689e-01
-1.461833984021425337e-01
1.709166705034292563e-02
1.986256995691857430e-01
9.863590452184045620e-01
2.448955581631657441e-01
1.484930217150348453e+00
1.465263320837590699e+00
-7.280122250243723503e-01
-3.413254840936518208e-01
-6.143407308704345038e-01
-2.582753939791576636e-01
2.843364851037619712e-01
1.096469250025032816e+00
-3.533202555217831442e-01
-7.524856333688012544e-01
-3.015102226461168766e-01
-2.787215058477755802e-02
-1.271523016199952449e+00
7.038599744538314162e-01
-1.184662219619744050e+00
-4.161262594989232344e-01
5.339292484670453698e-01
4.932545429610247778e-01
1.955037184595858735e+00
1.451727960224172387e+00
6.550066015634238292e-01
7.337782609618648255e-01
-1.612432425547662695e-01
3.620900040866678049e-01
-6.512171532590058654e-01
-1.781120922110779048e-01
-5.069317370197546913e-01
-2.262543183100264033e-01
-3.534084748553507627e-01
-3.609539190044859236e-01
-1.347854423262399459e+00
7.851624661285269702e-02
-7.331942188858898701e-01
1.411650423042974944e+00
-3.896388658867085963e-01
1.320229501693972241e+00
6.127284723087224050e-01
2.606763319271969692e-01
8.346984559439659668e-01
1.395595865915107758e+00
-2.535088115985634216e-01
-1.895350874559111332e-01
-4.164207505257803699e-01
-8.553826545546472371e-01
-3.148004547678480702e-01
2.879407343915973624e-02
6.132852156145767175e-01
5.104242238775070772e-01
9.786130327384423566e-01
-3.399070660849782821e-01
-1.287739140347611944e+00
1.287202427215179412e-01
6.139764294844177184e-02
-2.367665963687715647e-01
-1.719401002141333068e-01
6.242084942769957623e-01
-4.739859091860017526e-01
4.446885543018407327e-01
1.446137050486021591e+00
7.165821115626466176e-01
-1.038325172068831570e+00
1.968794380255793064e-01
-8.111827315636473967e-01
1.897304966304005636e-01
-6.449612262750727965e-01
-1.018707260138327797e+00
3.372382026962273405e-01
-4.931836788926786119e-01
-1.144955899081930711e-01
-4.490962593399648317e-01
-6.717654572365251431e-01
-1.307578725806157305e+00
-2.241064997002771564e-01
2.510672724514025900e-01
-8.865653734169892664e-01
1.780230856576843212e-01
5.435242959457227130e-01
3.544726843518058446e-01
9.058118592907345168e-02
-8.949329852799735585e-01
9.879012510120326329e-01
-2.064202270247729842e+00
-5.795895680937229733e-01
-9.115925655720483745e-01
-5.792948055896093296e-01
-2.464023050224279365e-01
-1.210792557817086390e+00
5.204079815326336789e-01
1.228558418872911923e-01
-5.263096397463943310e-01
-9.658476577959825837e-01
-9.660489689275336689e-01
-2.499538958026910895e-01
-2.433207021938556258e-01
5.052504943807479831e-01
-7.756586758073567012e-01
-1.915081255457545595e+00
6.534567239701313257e-01
9.356617776568521005e-01
-1.449727650173127935e-01
-8.224029913424698579e-01
3.312505568638570153e-01
-7.065036231014460988e-01
6.431745786224892791e-01
-2.153015826574982139e-01
-8.412302261551348748e-01
-5.575414149312012124e-02
4.671291458250179107e-01
7.109359360386562354e-01
1.109421127578641197e+00
-1.345017308575727322e+00
8.857177212026302593e-01
6.971159888898742496e-01
1.975216920277585109e+00
1.182852571108872625e-01
-9.578675728708364590e-01
-5.068831281521708476e-01
-1.229301733056506890e-01
1.297078833218304472e-01
-2.971667681049260934e-01
7.477803372291336181e-01
-5.328511436753022856e-01
-2.908436937746600778e-03
2.885648447414891349e-01
3.723135684788291266e-01
7.153422421506817896e-02
1.721628162261805484e+00
-7.212441542595477983e-01
4.867246688034256308e-01
-7.854346678459901421e-01
1.101163042020178451e-01
-1.517093304219198746e+00
-2.589623625159892528e-01
4.396047694211201867e-02
-4.933460147258558748e-01
8.943597092740438459e-01
4.763001589310614792e-01
-3.600020795292970810e-01
-5.810865209378944518e-02
-6.701479120973697912e-01
-1.214517981634112287e+00
-1.733150837264606281e+00
-4.537593631648987325e-01
-4.995006125795717344e-03
-9.131462155778505285e-02
5.596779971854412006e-01
1.039208138957245398e+00
-1.355960068023744913e-01
-3.007284135924821467e-01
6.281774111769321545e-01
6.576215176205904012e-01
4.230396865570078546e-01
1.122147025921820251e+00
7.513472056106037522e-01
-1.857286974983689776e+00
-3.240233184626891694e-01
6.917892070966986662e-01
1.015696266124088698e+00
1.926330676250133933e-01
8.142269718356697217e-01
1.431341816382812326e-01
3.690499319202493744e-01
1.292248538937995350e-01
-8.481293422003387539e-01
1.667661775909409783e-01
-9.019952253865759495e-01
8.748041161296497004e-01
-7.701607649526370780e-01
3.814755029761407457e-01
6.404358591579620286e-02
1.061369049162234068e+00
6.735227247463090317e-01
5.059425954467049458e-01
-4.687365962107635786e-01
-1.675744326722195809e-01
-9.154146451533744233e-02
-1.383966586221162809e-01
-1.872414486796916688e-01
-2.382192595228811993e-01
-8.386570969592984648e-01
6.667340292841372751e-01
-1.600531599460272014e+00
-7.614540807808918288e-01
4.951802793570171390e-01
5.863271806937886410e-01
8.415369047015229531e-02
-1.205536440164174800e-01
-9.257805358110808847e-01
1.352951508815232740e-01
3.274206688397666987e-03
-3.179902691804784576e-01
-1.217305680520558431e+00
-3.168805966394853124e-01
5.025781265440293355e-01
-3.742205296931788161e-01
-8.757220342666003354e-01
-1.207040872023283029e+00
-1.900679208453530389e-01
-4.193973508484403201e-01
-7.392190304551772562e-02
5.435530075920322890e-01
9.173854955236308006e-01
-1.086438819113311055e-01
1.169876855828598350e+00
8.268564162750832169e-01
1.390403620702702847e+00
7.442538205095319270e-01
-5.450030995853584193e-01
-7.011922618728533285e-01
-2.394827045854246717e-01
3.154130634505007413e-01
-9.335876272663706787e-01
-9.334944869857443317e-01
5.588045392355154295e-01
2.880413396510341228e-01
-9.100576753566737009e-01
1.013878647220601392e+00
4.821398087838931201e-01
6.012196883461173869e-01
-7.631195014102322149e-01
-5.539879527489447453e-01
-1.849457349822259677e-01
2.886368388891866546e-02
1.733068239407964950e-01
1.133350958766337069e+00
-1.829731098371353837e-01
4.502753960711362025e-01
-1.138556710506307912e+00
2.678625989637875016e-01
-4.183731641757960085e-01
-7.194823140118798976e-01
-4.803080339500262474e-01
2.254687342746293233e-01
3.970056151834266966e-01
-5.565204091789749223e-03
1.596955140297677267e-01
3.064668968238295488e-01
7.474844641045120808e-01
-1.882032943098590205e-01
-3.091007010242181052e-01
-4.239802637201637303e-01
6.746124552600666346e-01
1.286023898885137129e+00
-9.205598711101828924e-01
-3.719970206297023574e-01
-2.840358803196922355e-01
3.979226515185472768e-01
1.587728905403159585e-01
-1.202889961682949843e-01
-8.601566544549968385e-02
1.475718892903558066e-01
-2.279988333521108801e-01
-2.518700885644334919e-01
-1.164023802129559026e+00
5.931092852394570514e-01
6.208527422648313365e-01
1.163026431348870071e+00
-2.407508546029575591e-01
-3.748293151008713631e-01
-9.777372896200241525e-01
4.924602573024770003e-01
6.826547482651788012e-01
3.247902367752415476e-01
8.433171809250104844e-02
4.915385385529658091e-01
7.236815096053023089e-01
-3.912823369692641079e-02
-5.194801042800542001e-01
-9.190801620633154423e-01
4.660069045228063533e-01
-3.999924646745964957e-02
-3.495561665566604970e-01
5.661687684925151842e-01
-5.514785442055554210e-01
4.909651743078638497e-01
8.622026508945467294e-01
-2.131244969184926119e-01
-3.049290484607389273e-01
-1.823586711175661235e-01
-4.783005987630659789e-02
4.636798165833594387e-01
-3.374608599443994494e-01
-2.250807342495050878e-01
9.166448088031311503e-01
2.147513457192534725e-01
-1.494099457410789922e-01
-7.925893057498510919e-01
-2.758801718292083205e-01
-1.127362264158110750e-01
6.546195912123679017e-01
5.226732565296392519e-01
1.367504996628329472e+00
-9.238966832126707107e-01
-7.026740599414269539e-01
-1.017526049661491294e+00
-7.005196908863743355e-01
-8.566587964232361685e-01
-3.178308249951421194e-02
-9.772077118393763806e-01
1.895260371535320842e-01
-1.243438791473715277e+00
1.452392602174445713e-01
-1.308312521607152945e+00
4.823375348961730924e-01
-6.919293403581630031e-01
-1.046573905835828655e-01
4.111322698156770761e-01
2.406252472959855004e-01
-5.254860120698607862e-01
4.504695269074435737e-01
5.103989607276642193e-01
1.014218147537882420e+00
-4.657269704480173078e-01
-5.181698485369758966e-01
1.270826217947416792e+00
5.649208582179400251e-01
9.419566742594910336e-01
4.502526032062820760e-01
-3.552809367917678096e-01
-9.971918557328984800e-03
7.543699146396940503e-01
-3.307137240702546221e-01
7.657435677898351001e-01
-7.316766776419101337e-01
-8.636588429260481925e-02
5.948954888763576809e-01
-2.743238478232377098e-01
9.865191836164891592e-01
3.371394698588654482e-01
1.337841879006843149e+00
1.114544380905859056e+00
8.701056794155376251e-01
-8.750219112449934000e-01
4.104406241114294529e-01
2.676713862496617469e-01
-2.611489868666388992e-01
-8.572262629339628681e-01
7.241385505878509266e-01
1.422244139935809892e+00
1.074112056990602637e-01
-2.687913422919792072e-01
-5.229867049941424595e-01
6.113680371712126860e-01
9.166023735921187132e-01
5.905279307098364461e-01
6.274308367487526628e-01
-2.268094524454004612e-01
2.703512543698342596e-01
3.184422356074900207e-01
-1.056267729245539799e+00
8.613260222631529128e-01
-1.958033174640698426e-01
3.255932369171070095e-01
4.119435999041778373e-01
2.468897744617536694e-01
5.090870640783559109e-01
8.130233005162021964e-01
-2.158320848827232907e-01
-4.161929160550315587e-01
-1.370030410058301062e-01
1.075471094868789695e-01
6.640599932467980970e-01
-1.309000525984051894e-02
-2.065116481624533207e-01
-8.394664127615353300e-01
-4.721582572331013000e-02
9.101017771284608537e-01
7.291505626911164439e-01
-5.028379892246577221e-01
1.766582422517505024e-01
7.742346950776658465e-01
-2.688525346387684589e-01
1.181753985576863064e+00
-4.379393948743587339e-01
1.163397573709270105e+00
1.046775392394613480e+00
-2.978920217783346813e-01
-8.460173629938577688e-02
-1.060783685988795355e+00
1.194124880302891434e+00
4.912031361054782219e-01
1.634436376759437426e+00
-2.641882030252042379e-01
-1.414855784334727029e-01
7.400192598934172139e-01
1.171623541177304384e+00
1.666289479103912896e-01
1.957938790817311148e+00
-6.225493245130907516e-01
7.357208904000417382e-02
-2.936084399510475729e-01
-5.285046288860473229e-01
4.781682506909437635e-01
1.289539408356731032e-01
-4.421083078265767297e-01
4.044512757144726467e-01
-4.767037956091319528e-01
2.867189391273254340e-01
2.394414793873268221e-01
1.003826382922602845e+00
1.056011698747369332e+00
1.018068945107691720e-01
2.310996806465998032e-01
1.254110343262968330e+00
-9.243439656738444699e-01
2.915891574112230641e-02
1.105021304769036927e+00
3.019241122908897790e-01
-4.564608260230061942e-01
3.126005522093531774e-01
-4.297947128435136710e-02
2.820820981641966943e-02
5.964227670929344027e-01
-1.403241942209958182e-01
1.024475591975195110e+00
9.502694326556763160e-01
-2.878139050308809246e-02
6.293982499014731946e-01
7.924641484046059114e-02
-3.599080320425775970e-01
1.043141964151675705e+00
-2.503146928552060224e-01
-6.362217512087109395e-01
-1.644942104396987792e-01
-1.026937211719756382e+00
1.076313881646547177e+00
-3.280926321664443535e-01
1.577864527116002780e+00
-1.637590730904150416e+00
5.212278323963071003e-02
4.983398714510883787e-02
1.286508183627831370e+00
-5.055218441416232666e-01
1.420499131865376574e+00
-2.083388636112104841e-01
9.982918272867646881e-01
9.805407954649646429e-01
4.986349473887506378e-01
9.733453479020713894e-01
-1.239132630967600540e-01
1.439177442979229449e+00
-2.032116798173591865e-01
1.350168420329231234e+00
-5.845833945412777233e-01
-2.155348538841814210e-01
3.028183345891105049e-01
7.561910698704031875e-01
-3.747359483929752488e-01
-2.185124673922181349e-01
1.366791619139353098e-01
-9.958564655491056739e-01
-7.854682655866502827e-01
-3.209789738079324994e-01
-2.011510352943103874e-01
2.148437197280380628e-01
-9.251477762506524205e-02
7.140150788856407527e-01
8.552295006553294054e-02
7.022521139825054215e-01
3.192415616851511651e-01
1.739090631256736241e+00
-1.393398417075479290e-01
-4.058186710372367334e-01
4.680987347635376383e-01
-5.238166360363899487e-01
-9.904666107211278492e-01
1.490296579724466886e-01
-8.357176122593479306e-01
7.386519728000374707e-01
7.794077144758404518e-01
-6.586643197639261427e-01
2.987259104536923449e-01
-5.856557339430863429e-01
-4.482833333435537471e-01
4.240156684342412663e-01
3.552052652550564682e-01
-4.635584308427574407e-01
-7.404700644819502964e-01
5.732596894617112415e-01
2.965223317202583461e-02
7.745550697404312013e-01
-6.498207236884547822e-01
-1.371350827574052911e+00
-8.742919040123082741e-01
-9.785435180422357160e-01
-1.067498938173394030e-01
-3.669974592451046291e-01
-2.017039500099098437e-01
3.557594086258981242e-02
4.445337828429649640e-01
9.655059524945424076e-01
5.580722996675206021e-02
1.152708394624772092e-01
-2.455539576515315403e-01
5.659952606855451762e-01
-2.976142433845515023e-01
9.309594110194960859e-01
-4.533663991522882131e-01
-6.970976758605472723e-01
-9.585001075903336609e-01
-8.549930669491895285e-01
1.028372675908271416e+00
4.154776786453929782e-01
-5.025746833060885654e-01
3.323685975845381835e-01
-1.232976239584543943e-01
-5.927781304970145297e-04
-8.185363244079091327e-02
-9.105382019315212683e-02
-1.330773364137042725e+00
1.406165072401658611e-01
-1.356436208473974281e+00
6.125247719217257192e-01
2.116743673122914726e-01
2.718085402926843086e-01
5.413483760540604289e-02
-6.815997124691542952e-01
-9.855589974322249702e-01
-1.201639745885407340e+00
7.968686500987597343e-01
-6.243432708592505653e-02
-1.918120993417485431e+00
-5.105678523799777047e-01
-6.128056194268252099e-01
7.269312299805037458e-01
7.868656459011925675e-01
-8.360355211853658097e-02
-2.759432894378378021e-01
-5.179524847714912505e-01
5.602908045655535796e-01
3.438778923991978598e-01
-5.842183651580663550e-01
-9.986703649659080251e-02
-1.856783813688942242e-01
4.904986636587015392e-01
-1.779119839287483518e-01
4.734193405660421655e-02
-5.133085992707943079e-01
4.429534161665653058e-01
-3.308209592997897741e-01
-4.300054607021511210e-02
-7.593763758959981569e-01
-6.203511652522871733e-01
4.279444114097952223e-01
-2.080349417620381558e-01
-6.453167772893765586e-02
-8.200547195412309920e-01
8.648103377580035334e-01
-3.462572031539545292e-01
1.038931974938471781e+00
2.005852169944885854e-01
4.012409636281681347e-01
-3.083392513650303757e-01
1.769341792969107985e+00
8.386351583514630725e-01
-6.422153087403236205e-01
-7.311467146763483971e-01
4.547598292429476663e-01
2.734470350474483835e-01
-2.179085619253731121e-01
3.078766009081222998e-01
1.924562972328016930e-01
7.388969398368783192e-01
-1.431055767932903622e-01
1.157328053141297858e-01
6.791929664026080671e-01
-3.757577570785481519e-02
7.875508420882693095e-01
9.953526566752672611e-02
-2.013416734772519867e-01
1.540601985095514603e+00
-1.881377843036204700e+00
4.563025236647699767e-01
-1.537684610597276069e-01
-1.191353620194690877e-01
-1.083283763695750412e+00
1.780055974340390756e+00
1.820001445546678975e-01
1.768480085896157183e-01
6.379740075448346870e-01
-1.454133756747512551e+00
1.957828870329990867e+00
-7.098611096792295516e-01
-4.142660333331002476e-01
-7.303492595547449173e-02
-1.475518373434957287e+00
-8.265733930729791679e-01
-1.012922349051027071e+00
-6.032181838264503160e-01
-6.438472089345960159e-01
2.669805475582517351e-01
7.716551577622517144e-02
-8.505123627443049728e-01
-1.021379597810304851e+00
2.791535780659917809e-01
-6.647171931841077130e-01
1.244450276912247633e+00
3.974530652555659516e-01
7.258721325191135332e-01
2.678921654684751977e-02
5.138742335121917471e-01
5.006337161644327516e-01
-7.184233765483836187e-01
8.987738555207636093e-01
-1.160624489827649652e+00
4.330885634822560504e-01
-3.045404556425878595e-01
3.076064368911952118e-01
-6.030419105728076490e-01
-4.489281387175118043e-01
6.473689298553116922e-01
-1.386780604652070981e+00
-4.800358654079159987e-02
-8.310887295713310641e-01
-3.450770476072497206e-01
-5.436274409792500872e-01
4.546641347471612749e-01
-9.849367151793873010e-01
-1.166549740364938748e+00
8.278520096828567709e-01
1.715888789412261639e+00
-6.883833802998079454e-01
5.434019939144231204e-01
5.497806635067602476e-01
1.281910404885358234e+00
-7.492815555337657418e-01
-1.697663467290192241e+00
4.559854674028923083e-01
-5.051289609277692660e-01
4.939246026295333603e-01
-5.363579821561001992e-01
4.503311462149193756e-01
-1.263417528667595047e+00
1.291821828903667035e-01
6.824036415641838715e-01
-6.673202807541636083e-01
9.414583152378923625e-01
1.176795698757884479e+00
-6.071539163945793849e-01
3.496094225711585679e-01
-3.784817116508181756e-01
-8.062375928837446359e-01
-5.446028433060237095e-01
-1.049934636090483098e+00
-5.413259233065201848e-01
6.364447464838838275e-01
-4.111595125133664375e-02
6.851032372056331532e-01
7.179715739824825693e-01
6.241189043965594818e-01
-4.533099225990274705e-01
5.131034007713014544e-01
1.785339658303948182e-02
-2.685651554092718385e-01
9.349463565332882808e-01
-8.379476831157440797e-01
-1.053026618079994314e+00
-3.423237352218160279e-01
1.126171179466753713e+00
2.055747447390867885e-02
-1.145199515523817269e+00
8.330819434264903345e-01
5.344721558609349943e-01
1.011033444345660059e-01
-2.221934368515924296e-01
-1.053049730115437788e+00
2.386781752282346458e-01
2.599700511534280278e-01
3.320561534964665551e-01
2.002982440128706632e+00
-7.256940602663719542e-01
-2.567314637033737412e-01
1.045725822745953826e+00
4.052257730811978931e-01
7.112514036427439734e-01
-1.224796850400995812e-01
2.454267622295388807e-01
-3.098562810772036435e-01
-2.861225399406890912e-01
-6.114974234137711129e-01
-6.117493776206871514e-01
3.393999318504132279e-01
-1.596852476079900995e+00
2.115091356120693267e-01
2.933396505842667673e-02
-7.047850420872172617e-01
-7.463793885483491763e-01
-8.002818440089174423e-01
1.890920956668530051e-01
2.222169632831109409e-01
1.673209982695445408e+00
-1.456076439404373923e+00
-8.146921566847201701e-01
2.090205466991499061e-01
-7.103883466107331346e-01
-9.732458231393417147e-01
-4.589079186667852084e-01
-1.387481479894319553e-02
-6.989973069996304744e-01
9.009851703860859429e-01
6.073132696338410241e-01
-5.027585473697446794e-01
-1.224440302251499579e+00
-7.672564463969197002e-01
-7.486605442310546588e-01
-1.007771543190740804e-01
-2.676197461267126876e-01
9.652330844304171098e-01
1.986922293016444074e+00
4.566644006354840801e-01
-1.730724098547359036e-01
-4.590976776924077934e-02
-5.328842346260094232e-01
-1.231480394618377661e+00
4.426235675579755918e-02
-7.197514194157566235e-03
-2.282933056402235428e-01
4.591184699521637658e-01
-9.082334897869254187e-01
-1.107234143162711126e-01
-2.626321625353324890e-02
-7.442290512348901377e-01
-2.855764911330595512e-01
-7.569903409290578145e-01
-1.032414401085043565e+00
-3.743987087982190154e-01
-1.088382123059269541e-01
4.905627140150153886e-01
5.309463268485576926e-01
9.011183595829917736e-02
-6.980379574691142341e-01
-5.438250850726008556e-01
1.164645691768756153e-01
-4.290100357576382417e-01
-1.297295193682436176e+00
7.976834924988736308e-02
9.403066746924751418e-02
9.906173660643979861e-02
-7.403771878897413838e-01
3.024335315816391034e-01
-5.134065294471337193e-01
-1.121156910632283621e+00
-2.097466454216212750e-01
-2.103174215245937062e-01
-7.207607956161492524e-01
-1.327303308900553702e+00
-6.286786829684045674e-01
8.004550196931763117e-02
-9.676901264361861266e-01
4.586293875788449159e-01
1.810761125034545116e-01
1.365357855981029767e-01
2.541423798919644761e-01
-6.363792064063328313e-01
1.319097599538860965e+00
-1.197786930638569114e+00
-1.342509352595443239e+00
-8.631557683293390459e-01
-1.485392495351961495e+00
3.841505525437722279e-01
-9.785963758706751614e-01
-6.581206791633431585e-01
3.329267093168079006e-01
8.998311743200492208e-01
-1.503362962400306868e+00
5.690987948350260117e-01
-9.388450200636491161e-01
2.105438751204433134e-02
2.593785025532958644e-01
1.932751651443915808e-01
5.348438375627425634e-01
-1.402224970873730547e-01
-7.026604165103537136e-01
9.640466678385073429e-01
-1.164219341405043906e+00
-1.636181012757885966e+00
-8.165753502010070219e-01
-7.718780040416775012e-01
-3.360201074336955918e-01
-5.863356871351648181e-01
1.635283393384301120e-01
-8.137998603085077054e-01
-9.119520495559683138e-01
5.491970371529053541e-01
-1.371585265799575737e+00
-8.594682447137244052e-01
-3.192107985626101846e-02
-4.937215033002385900e-02
-6.636760934966904335e-01
8.609867448049032257e-01
-4.155330240920610679e-02
-6.197503126847779820e-01
-8.201436238901887998e-01
8.355786754887631340e-02
-1.260065820226516364e-01
-3.037297357227031203e-01
-1.308653693296068399e+00
-3.833824463442078723e-01
-1.529276387714253005e+00
-5.282621487808366600e-01
1.681444319133610643e-01
-4.118014672864668269e-01
-2.672927327474874382e+00
-3.009942178420296766e-01
-4.925206661041761635e-01
-4.578783003574287136e-01
4.100293278877525927e-01
-9.511110355377505599e-01
-8.864624097571768280e-01
-1.400989915857905554e+00
-1.254965744547113515e-01
-4.829966060738142830e-01
-5.672991371606539435e-01
8.187798878173317974e-01
-1.224614964616324908e+00
-2.486475537227080673e-03
-8.237561298399778131e-01
-1.361825902955398293e+00
-8.503695686738173276e-02
-3.409563031395095867e-01
-3.691031660269014081e-01
-1.484950677888589476e+00
7.732432750822930412e-02
-7.710925343354149142e-01
-1.058766587104759821e-01
1.367609004631648251e+00
-8.549115484779716834e-01
-6.174576323907228215e-01
-6.186199441969053581e-01
-6.946309183527085152e-01
-1.932663017671535505e-02
-7.511480015345520234e-02
-1.354397887706449533e+00
-1.285730184188728309e+00
-4.236499114237587404e-01
-5.995845547483754645e-01
-1.491988996366793441e-01
-1.325584221160544418e+00
-5.266451361246611285e-01
-7.190803575774885603e-01
-6.233511811187758545e-01
-1.056247466557610926e+00
-1.243757999040141948e+00
9.605253726361138999e-02
-1.447069133940902530e-01
-1.935687794681823837e+00
-5.662020258947725315e-01
-1.050510047743980768e-01
-1.633761758728138891e-01
6.504974160051395227e-02
-1.162702757722541058e+00
3.328951733946254321e-01
-7.702263142097232063e-01
-5.327966477576751014e-01
-4.387631125207440141e-01
-6.628208273495616032e-01
4.544825381573153883e-02
-8.458331135139812718e-02
6.766835481421481502e-01
-1.312871352137370717e+00
-4.503873699052682311e-01
-5.216389600055052478e-01
-1.680512610956411690e-01
-6.670370536600661593e-02
3.443604248747131336e-02
2.546505252901698491e-01
-3.301656125929655627e-01
-7.576521539036149555e-01
4.548315493505251939e-02
-1.038400584441458552e+00
-6.383345343964150764e-01
1.654768213413000399e+00
-2.382234031851493128e-01
6.328433580947602222e-01
4.928508130064962467e-01
7.235142970791721279e-03
-1.456638139051756597e-01
2.198935767175961842e-01
-1.173475181522631861e+00
-1.384166311116893144e+00
2.000379554921997149e-01
-2.108510725957234710e-01
3.322534269243607730e-01
-4.488336512388800270e-01
5.460175690099166035e-01
-5.951333173162500767e-01
7.355655735328836542e-01
-2.885213736645328431e-01
1.405121356393708720e-01
1.604269581318152227e+00
-1.341512958800495259e+00
9.727028368313688222e-01
2.269214444120594767e-02
1.367532489519980299e+00
-1.085983641734141192e-01
-5.042036976250305891e-01
1.117436701405682964e+00
1.218928459569134537e+00
7.838935207158400642e-01
-6.884646846257674868e-01
-4.396892293591675611e-03
1.902439347955592330e-02
1.023819320443989822e+00
-3.402760447419367895e-01
4.151972305474864178e-01
-5.254186652593442197e-01
-3.500835190351229698e-01
1.796468824794978103e-01
1.019889354505003481e-01
7.955822167635218101e-01
1.988725581591908320e-01
4.871015238221318433e-01
-4.017913582440740816e-01
6.804165316654801066e-01
-1.526319242183557856e+00
-9.745109164574079497e-01
-9.866505942236547533e-01
-3.484671567613911725e-01
-1.107915245860338072e+00
-8.438206527861212558e-02
-7.988396464944561570e-01
-2.054470363744305694e-01
-3.425506882761795713e-01
-1.915703700551479316e-01
-1.249193197327524846e-01
-1.657890025208553997e+00
3.295049737461294703e-01
-6.852247005930196533e-01
4.254042216837140566e-01
3.034363474530794511e-02
8.882100050149992210e-02
9.922486231305746029e-01
5.540908715766111881e-01
2.540900335283997058e-01
-8.048324741471635235e-01
-4.780156329822922157e-01
5.592986768510569418e-01
-4.134070259552264925e-01
1.368107557176875488e+00
-2.115698283686982262e-01
-4.940262940981561823e-01
-1.197928908105641677e+00
9.911427009159281543e-01
1.346904779990595324e-01
2.286200132282404651e-01
-6.735749132828028340e-01
3.701344354670089154e-01
-3.241449527063638425e-01
-6.661882267802746727e-01
4.150170532092004733e-02
-8.038260750902060936e-01
-2.716663213094774876e-01
-3.295609104496396990e-01
7.004364507751371649e-01
1.709144865958585890e-01
-1.943182799397806804e-01
-5.297338357997746217e-01
-9.875014477088999154e-01
2.929005712919641180e-01
5.301407583466462015e-01
8.978231890188783648e-01
-6.620047873159524698e-01
9.520619869993588447e-01
1.090358619172945742e+00
-4.324126320502224008e-01
-3.630834289822023053e-01
-1.179250995530906287e+00
1.153446264320211023e+00
1.276216170366020863e+00
2.582588420392082917e-01
-4.753217431804094284e-01
6.673440108109242319e-02
1.051703225108430617e+00
-9.476326094208653572e-01
-6.856872553123000147e-01
1.369182303336180795e-01
1.229743312968349794e-01
5.020171380420581642e-01
1.526409872833183856e+00
7.309386990678297114e-01
-1.675151524034090567e-01
-6.522251877599123393e-01
2.453099336229778438e-01
-1.150178755689927890e+00
2.049712167527259765e-01
-5.718598691278264923e-01
-1.032155329590506376e+00
-2.960790653942629302e-01
8.976405862935684654e-01
-1.256958471788142961e-01
8.519014787834824354e-01
-2.148478742551095666e-01
1.515391582002479365e-01
5.739320355172078392e-01
-7.406185659424907586e-01
7.643106034388345016e-01
-8.123911175336612223e-01
3.368192199218654204e-01
-3.659752936530766831e-01
1.037028412937237132e+00
7.301194994207850231e-01
-6.786765614724756812e-01
-7.637213988883579940e-01
4.033287943543105714e-01
3.967402053071121260e-01
-1.005304951996118579e+00
-7.025240900285875667e-02
2.992547572841732229e-01
-1.065890288066193126e+00
-1.829381264514480868e-02
3.007944452253846213e-01
9.771731166176966799e-01
-6.078676880946862759e-01
-1.343931155136141919e+00
9.858400033386340855e-01
4.330442849884659218e-01
-1.092825520784671545e+00
-5.116868577501032522e-02
-9.530335513029386529e-01
-1.391959951938411599e+00
1.321502882233897447e+00
-5.686942791086138094e-01
-5.905263868543750849e-01
-3.211319276999954897e-01
-3.258139503249742885e-01
3.232782783644219671e-01
2.425112593290197627e-01
6.379156160367768780e-02
2.129019416669988840e-01
-3.207512766744803345e-01
1.113632191152866158e+00
1.306198918679259524e+00
3.965623506472442661e-01
5.550569399542217841e-01
-8.575607646729902500e-01
-4.569358826371120452e-01
1.112189937182091581e+00
-5.651730890051654965e-01
-2.153273917044236929e-01
1.091764530828839064e+00
-5.954286720083880047e-01
2.058757994212963016e-01
2.010279225530791525e+00
3.549256793417434053e-01
-1.337415783276896808e-01
-2.984731524150189830e-01
-9.207558124954517975e-01
7.445835885407086074e-01
3.044224125326796537e-01
6.175997075911126011e-01
-1.420731753598975855e+00
3.339255701448021196e-01
-4.756529538481725772e-01
4.427367259217122597e-01
-1.402492701659369789e+00
8.417547425500677694e-01
-6.170521488197009408e-01
9.049266100720407824e-01
-7.772201418461698319e-01
1.189363882858747723e-01
-4.019441005345459894e-01
-2.849723314235164118e-02
-8.672732873316404412e-01
-2.422970085221735626e-01
-5.992194008173823416e-01
-6.606052956682363642e-02
-9.285540946164018775e-03
-1.913450784858884701e-01
-2.636936199081537646e-01
3.761165079407513545e-01
-7.534080771788956854e-01
3.832565665067746430e-01
-4.200960831572885246e-01
6.607702383475648755e-01
-6.289262359115541656e-01
-3.521469274478402078e-01
-1.420196581988992346e+00
-2.112371935711535031e-01
-1.255381382618629305e+00
1.252349049753150867e-01
-1.511807089517828828e+00
2.625740457799878858e-01
5.410755525547843447e-01
-3.704134241784017845e-01
1.690944832682668819e+00
-4.741924605794165491e-03
4.196507540485934218e-01
3.473040624851476132e-01
-5.393492161747917013e-01
6.015686772533178628e-01
-6.745903468213312326e-01
9.245536325397728517e-01
1.458370561935879994e-01
-4.232705996368960610e-01
4.205301072121050976e-02
-3.051865399292747957e-02
7.033424863344304168e-01
-4.494788294010330643e-01
6.647628539318700680e-01
1.362336309123357347e+00
4.273032059670783256e-01
-7.393124655044288618e-01
5.437218257620590744e-01
-4.367119275008627399e-01
1.335311198809426836e-01
-3.744614082158867485e-02
-1.589439270606370080e-01
4.679822593779984774e-01
9.411160508318342499e-01
-6.595298906945413764e-01
1.010482856962064968e+00
-1.737965844951474548e+00
1.673050387797032856e+00
1.203043555110055313e-01
4.360695045988356999e-01
-4.876841987283222490e-01
-1.276331573747796766e-01
-9.825424211096839278e-02
-3.319945189137373243e-01
9.886710768011647277e-02
-5.775176052098385249e-01
1.471513292916688087e+00
1.988940610982464774e-01
-4.660060594232228737e-01
-1.215958199498317349e-01
-8.718514769729498459e-01
1.241229197918733540e+00
-5.567870115784235852e-01
-4.492966344422504310e-01
-5.298943645632665511e-01
-1.096271444459136157e+00
-1.730313796836887852e-01
4.054408164582488094e-01
5.552858671281251102e-01
5.241120249156513422e-01
3.749321681753257085e-01
-2.107605664969695869e-01
3.510131537112465838e-01
8.411339812705859176e-01
-3.830519032653600942e-02
1.308801010308763835e-01
5.875182852885676432e-01
1.133185843767463119e+00
1.094583486805586370e+00
1.413759938961629770e+00
-1.982441556654044867e-01
-1.029925920811435747e+00
3.361419888951573676e-02
-6.694286980071872950e-01
8.129186690039365282e-02
-5.473737987703138907e-01
-1.464253536211071183e-01
8.361904966575179898e-01
-2.624188936196049649e-01
-9.907503217814395136e-01
2.773703603096292492e-01
1.438826728086816775e+00
-7.736021581024496996e-01
-4.507195237858602210e-01
1.928282107387148669e-01
6.557370800353574669e-01
1.027842654199074390e+00
-1.646942603418949602e+00
6.569455408686191156e-01
-8.439573781499635219e-01
6.309282656833659075e-01
-3.518461978440716176e-01
-2.191865810826611194e-02
-2.460823233570615387e-01
1.912512033178803139e-01
9.177479868399903706e-01
-7.846266921169245956e-01
-1.037095131313449992e+00
-7.006906261431145033e-01
-3.986253714015026151e-01
-3.097229888383133400e-01
-1.289769459697882592e+00
-1.585415841586021335e+00
2.509982518724377387e-01
-8.260582249058712190e-01
-5.004049090955173806e-01
1.351009235329488911e-01
-4.280529744284398141e-01
1.062109265306301342e-01
-1.047173903434802933e-01
4.428143409398328512e-01
7.203404338593671907e-01
9.435681269925761949e-01
5.908322184260490495e-01
9.306065528952635058e-01
-3.205963194214743184e-01
3.921569757634440490e-01
2.307550942975741815e-01
-1.025378441986549038e+00
2.160768994591072689e-01
1.329647094799481233e-01
-5.021974769165921115e-01
2.025598983688776389e-01
1.226719526486184986e+00
1.168477455829672051e-01
-4.803336787235910066e-01
-7.579144446623155285e-02
-8.691657866679376454e-01
-1.146790820417856516e+00
1.271709701937800974e+00
3.448406356972720521e-02
6.416627349713284190e-01
-1.259354332924657260e+00
-6.284139234829593246e-01
-7.660272011100038511e-03
1.165779903563401776e+00
3.181240738798303824e-01
-3.906103576566766766e-01
-7.774080426840397351e-01
1.350831966695837050e+00
-8.893911414899947632e-01
1.742759035988327709e-01
-1.673824209450878397e+00
-1.289199353513022395e+00
-7.364674790839770280e-02
-9.192370685032911215e-01
3.157005552125577430e-01
-4.332512287516198657e-01
-9.548600298671386377e-02
5.554391121015613830e-01
-4.302044624830103081e-01
-7.431939788508402644e-01
-5.401341683005190797e-01
-1.885988382754797965e-01
-4.057769443423460687e-01
-9.103341085293599200e-01
-4.122377681753962020e-01
-3.562248951295595711e-01
1.426767554076402988e-01
-2.470667179079096831e-01
-1.777634347489628563e+00
-6.695538050202490266e-02
-2.360410750180557682e-01
-1.258929600523178149e-01
-1.057648899937994186e-01
-9.389578868098242825e-01
-1.151251919484512332e+00
-1.757147503154402157e+00
-6.326692531345111670e-01
2.263380165554479684e-01
-7.271674394362165339e-01
5.330754343938893802e-01
1.208825082009012813e-01
5.432368794705948467e-01
6.255630154003040122e-01
1.663618467383127797e-01
-2.677696725138566380e-01
2.468667353884844429e-01
-7.450659119659344132e-01
4.497974162930356012e-01
-9.739126371222299738e-01
-2.868894227736916158e-01
-1.257726805033285489e+00
1.624921929019899958e+00
-3.487582420562372332e-01
-2.850087118895741622e-03
-4.895694098783259229e-01
-1.362689394844955659e+00
-8.854707630307722122e-01
-1.446128907476594616e+00
-1.349361665991022585e+00
5.591261238660113486e-01
-5.477096874642037871e-01
-9.518329952789142401e-02
2.819078175722365964e-01
4.932836451666102739e-01
-7.134082948412902025e-01
6.990536019663630141e-01
-1.118177371558006339e+00
-9.802609076621664475e-01
1.663728209617031384e-01
-3.679253068066200005e-01
3.397675308818317030e-01
5.008242854678109923e-01
-8.686033753038471805e-02
-4.343212427443988999e-02
-2.777551638545109891e-01
1.979020943841288283e-03
1.060292088693465112e-01
5.750188272429208602e-01
-1.812974055976540599e-01
5.925943914871850682e-01
-1.014031558495968044e+00
-5.529826221801412700e-01
1.790456448613053086e-01
1.763476188535521849e-01
-1.125762044647570098e-01
-3.468406193281314831e-03
1.005656329633917601e+00
-8.226310263687607316e-01
-8.291574584244956747e-02
-1.276072179022217146e+00
1.132208876063430791e+00
1.844953630744555761e+00
-1.256284523642117179e+00
-7.850158982288898413e-01
-4.175537931383592194e-01
2.417984787456587889e-02
-1.293986249319855064e+00
-7.177615574844646573e-02
-6.503606797514570326e-02
5.080942245807766877e-01
1.959928572156509896e-01
5.204107398543798141e-03
1.099298339334845664e+00
1.628407055703841033e-01
-1.082182115260775790e+00
1.149097976434751978e+00
7.132013383826522057e-01
-4.153303850293493249e-01
7.701089192217412671e-02
4.282010040192875122e-01
2.821392326784629145e-01
1.205307686003799672e+00
-2.111853830552193334e-01
1.330913313077348725e-01
-1.089159909884632293e+00
-1.669089581469836103e+00
-9.589833171764009512e-01
-2.357929379484345056e-01
-9.961425371556714703e-02
-1.335748320324774863e+00
-9.747393152706974595e-01
-5.144823542096860214e-01
-1.766850736400013555e-01
-4.271170821510120175e-01
9.689729462256030379e-01
-1.739252127907095491e-01
3.453011273374434476e-02
6.629476503058746818e-04
-5.118198715139156141e-01
-5.105626114295558349e-01
8.570947595747379077e-01
3.166114649190558961e-01
-1.265129858302461940e+00
-2.311484532577696149e-01
-5.343801500091921453e-01
4.764038518217861978e-02
-1.478957090770205207e+00
5.119740590210783426e-02
8.469143897771994611e-01
7.410222342259530359e-01
4.296478359031760674e-01
-1.121780800061737082e+00
-2.764145970571581512e-01
-8.175334601565140691e-01
2.222062215806346885e-01
1.065231514810632385e+00
-1.599341221798231405e-01
-6.671145339701013421e-01
1.132944480434460999e-01
-8.300495975689150541e-01
5.977640005312507832e-01
-7.669589605570302782e-01
-3.630162768036050425e-01
-5.586309317340811820e-01
4.019002921612143536e-02
-7.738400366951244669e-01
-5.547279152859259099e-01
-7.887491452656534285e-01
7.919853503662632743e-01
-1.833712990474803683e-01
-2.804061306594761716e-01
1.346844752787579313e-01
-6.361800298759809902e-01
-9.085623264785647191e-01
1.728873835896669320e+00
-6.203234014677185687e-02
-1.549912744761778871e-01
-1.644418383672577588e-01
4.827935023462602282e-01
-1.867663239335828618e-01
-1.191974995144019278e+00
-1.115429212043371976e+00
9.427454838248565672e-01
1.760320103466281316e-01
2.875858430954352785e-01
-1.222937169233895505e+00
7.702126944368112849e-01
3.212550315082410846e-01
4.805248247049743182e-01
7.053872264876947726e-03
-2.693963565434934759e-01
-8.972797113254619150e-01
-2.700065997469355827e-01
-9.125964832533063620e-03
2.333993536521479228e-01
-6.566483623555805504e-01
4.712954771795279107e-01
2.214369469351981090e-01
9.834963236759036720e-02
-3.674623881164832961e-01
-2.203074086851177782e-01
2.008802591502949764e-01
-1.891766410585846714e-01
-9.818524566569476475e-01
-6.856093121251732869e-01
3.078220022871274164e-01
-2.686809708299865429e-01
4.718967650739691044e-01
6.249458385672733707e-01
1.160855706404865684e+00
4.606017892922729673e-01
-5.186199657383406825e-01
9.629533104977376912e-01
-8.620271289828363992e-01
4.539336993293784372e-01
-6.777444932307010728e-01
-9.101041805705023524e-02
-2.320839773388109206e-01
-1.158235350641866404e-02
8.800675006383941179e-01
5.789866730014799900e-01
1.883390348649947033e-01
-1.170790465912011191e+00
-9.043733822354533824e-01
2.562872741442435709e-01
6.613801442546063392e-01
8.512965635667540942e-02
-8.382691114618889827e-02
3.791663975724868241e-01
-1.414857879402628416e-01
-9.923052005717301061e-01
-2.461894732054047130e-01
1.703462655527089933e-02
1.030169187939500963e+00
4.133302308357503230e-01
-4.864619434754428040e-01
-7.189561729044499083e-01
8.808409940606557464e-01
-6.606847237679920326e-01
5.255539842202879841e-01
-6.677208001234621326e-01
-5.096667651273844024e-01
-8.503666193468545353e-01
7.867065721021390678e-02
7.638483527611947821e-01
-6.391396248096498089e-02
5.214807680859027267e-03
9.014766340322086791e-01
-5.077619180516339537e-01
-1.307238180236497183e+00
-6.005218419918056938e-01
-1.339636107533510034e-01
3.239954139758883245e-01
-8.551992406637379807e-01
-1.920572338305562010e-01
-7.084941721137703041e-01
5.586272920089599969e-01
-5.714852983355481753e-01
3.933428606518243331e-01
5.048999369430612338e-01
1.492743380909684892e-01
-6.617632171318789114e-01
-2.986702707535219062e-02
-2.990522694598595210e-01
1.296824322677635373e-02
-1.051486919833865663e+00
1.606343627063702373e+00
-8.630999633032370166e-01
7.233706686757696014e-01
1.013140887195144835e+00
-8.462745441580807881e-01
7.434821074965634047e-01
-1.975793059939237872e-01
8.111461703420437264e-01
-6.760647648513645747e-01
-6.522420121396991233e-01
-4.046830636284971111e-02
4.338255363211706572e-01
-6.837698052905569757e-01
-3.802392522290719556e-01
-3.422769037256795377e-01
1.194933332103769841e+00
2.067646871002468134e-01
-2.672718485482455941e-01
-4.757542519448701990e-01
-1.190513825298358253e+00
-6.544894753189715031e-01
3.684321279100257751e-01
1.351402324116798837e-01
-3.214700785245326320e-01
1.165370152838052231e+00
-1.563509386339929572e-02
-1.259422425287112457e+00
-1.178909176469267704e-02
7.903473949668280429e-01
-7.531818145829834166e-02
-5.739237201117614040e-01
-6.831813629750685957e-01
5.932281533206977819e-01
9.520317265160813669e-01
1.111304452653025104e-01
1.286232032567411032e+00
-9.114765868093959167e-01
5.763051421720891132e-02
3.315008357812238016e-01
2.894991768340304250e-01
8.636301858673429699e-01
-5.386499479508837229e-01
7.706292661256749499e-01
2.040541439136344393e-01
-1.181556519013970297e+00
7.231174617824954742e-01
-1.036417001100534030e+00
-3.350690857167739067e-01
2.893361240670935253e-01
2.786423472201242646e-01
4.270967891834828722e-01
8.470405055558164475e-01
-1.218046161195790594e-01
-4.039237592843460956e-01
-1.227852111159763115e+00
3.289718286682163928e-01
8.284063140914150747e-01
-6.800092589445234648e-01
-1.889395062074940013e-01
-5.811097849685107342e-01
-1.315166242196973423e-01
-4.480775390722221418e-01
-1.564951887105233141e-01
-1.642407630352149539e-01
-8.518892354959100022e-01
-1.927690581750571563e-01
-7.938106255350684259e-01
3.948489628039329458e-01
-5.782681072015658508e-01
-6.231222621650144289e-01
